257 100
vaccin -0.26938084 0.016142352 0.00089439534 0.075286984 0.01966266 0.34797347 0.23267527 0.00826994 0.3969888 -0.074978106 -0.2679767 0.20093364 -0.18531075 -0.15431474 0.20075633 -0.1675179 0.22065274 0.5410753 0.40602756 -0.13462514 0.16057782 0.27115968 -0.03288444 -0.37424976 -0.16277428 -0.2121398 0.020339306 -0.025787093 -0.053626962 -0.20980099 0.017412458 0.31346053 -0.16138664 -0.022234987 0.13595007 -0.05907592 -0.097356215 -0.13141318 0.27601025 0.03380819 0.31690535 -0.080874026 0.1091966 0.2663898 0.005353808 0.4456651 -0.023799978 0.07763609 0.25692523 0.06399794 -0.08817075 0.063104235 -0.069671884 -0.037357993 0.2613944 -0.2131395 -0.1744694 0.08482372 0.35750493 -0.11653273 -0.42305025 -0.1193889 0.10474751 -0.33026809 0.18249817 -0.06630805 -0.33089164 -0.076998755 -0.17871271 -0.100630075 0.098331675 -0.012772942 0.19691652 -0.25430554 -0.35498932 -0.12198426 -0.0051418943 0.037323445 0.0044907467 0.0886889 0.062860675 0.13956383 0.23184806 0.18065783 0.044569556 0.29501987 0.12344264 -0.0460756 0.08211782 0.099397026 0.061891943 -0.05811916 0.07804126 -0.13585407 -0.027014097 -0.27810395 -0.078623794 -0.19264571 0.11667882 -0.074045174
covid -0.30366766 -0.13748659 -0.11402551 0.117663965 0.018433353 0.40972683 0.25105625 0.42124838 0.14877893 0.006952891 -0.007457298 -0.26944724 -0.34197322 -0.04992743 0.04287675 -0.23947065 0.0739217 0.055680655 0.3841159 -0.19755101 -0.05328547 0.020845199 -0.2917126 -0.15813254 -0.020915838 -0.3065368 -0.09873078 -0.18035735 0.4506699 -0.18097492 0.18512705 -0.011770277 -0.48738512 -0.01609566 0.2692821 -0.22534229 -0.32222027 -0.26035652 -0.16806 0.20779268 -0.19937265 -0.43015933 0.36617085 0.32462874 0.14670333 -0.052718252 -0.06724172 -0.059117302 -0.19197282 -0.21268108 -0.092999496 0.030712247 -0.015762847 0.16437358 -0.010522937 -0.29526076 -0.17112656 0.4810172 -0.23981088 -0.1254252 -0.2605524 -0.24904767 -0.02289172 -0.14914283 0.3254656 0.35777894 -0.3160054 -0.16025119 -0.040773585 0.00893896 -0.10797316 -0.08693238 -0.07573646 0.20883265 -0.6082908 0.4591485 -0.08757416 -0.08546094 -0.17070061 0.3776612 0.27397496 -0.07323913 -0.04051758 -0.23214911 -0.015334548 0.020463457 -0.054064613 0.17593965 0.4034266 -0.029968122 -0.20891273 0.20641983 -0.03760387 0.3782289 0.11532598 -0.2844921 0.17914 0.010299278 0.19525138 0.40823045
peopl 0.07542693 -0.050925773 -0.29930732 -0.057206605 -0.25197273 0.15234584 0.4004715 0.09202351 -0.05416906 -0.36817658 -0.15573101 0.22373506 0.048189096 -0.18437254 -0.032798275 0.07303337 -0.04217017 -0.011118706 0.46994925 -0.04471344 -0.19302665 0.14463851 0.32564107 -0.059671037 -0.007638841 -0.033891574 0.057959016 -0.084934115 -0.09669207 -0.1532484 -0.13076505 0.13876292 -0.23158523 0.05044573 0.2539915 0.08639329 -0.11767685 -0.045790836 -0.30893952 0.14569652 -0.10106575 -0.23083252 -0.14460671 0.16354094 0.018796831 0.36789334 -0.038307667 0.22231682 -0.14865999 0.13937297 -0.23524928 0.22933494 0.26704052 -0.076224804 0.33036965 -0.22797798 -0.09830857 0.113567494 0.20338109 -0.24034232 -0.26999283 -0.16060026 -0.16137208 -0.21333715 0.31373426 0.100834735 -0.25343168 -0.15422626 -0.13643603 -0.16759944 -0.013873775 -0.105276875 0.2229502 -0.23668219 -0.39887622 0.17219417 0.15740785 -0.14060818 0.13645336 0.020724274 0.32939816 0.20139997 0.26218957 -0.24024898 -0.2181938 0.056835476 -0.025197482 0.24755548 -0.07150221 -0.018226344 -0.23282853 0.3398499 -0.1384208 -0.27502298 0.085857205 -0.51900893 0.2250779 0.22989303 0.20149373 -0.2147273
video -0.29458714 0.038288876 0.07458868 -0.08976624 0.38027966 -0.0985981 -0.4488553 0.07513401 0.18805693 -0.3159106 0.13863383 -0.10443798 -0.13647833 -0.040678788 0.20359235 -0.18405214 0.34784162 0.05043245 0.5133069 0.02693216 0.2956012 -0.23011419 -0.34756434 -0.10703989 0.03786486 0.4456973 0.010025971 0.05803611 0.26662874 0.12099416 -0.12977892 0.38986823 -0.21534607 -0.008407754 -0.3335017 0.06299091 -0.084870316 0.47112235 0.50584114 -0.25839117 -0.22498795 -0.23528732 0.034405682 -0.24905749 -0.035414297 -0.13588417 0.012250198 -0.04809333 -0.19075191 -0.21428265 -0.16479345 0.2671043 0.30738807 -0.198388 0.24636853 0.16798097 -0.3209622 0.27278438 0.21944517 -0.11834533 -0.008910818 -0.008218117 -0.11121451 -0.0878134 0.0812566 0.381603 0.13873625 0.22919822 -0.25405067 -0.47578967 0.21329987 -0.07908342 0.38068318 -0.35723573 -0.3506852 0.38725534 0.21229275 -0.41263497 0.004982412 0.02286349 0.3011571 -0.0677827 0.3737686 0.06031031 0.029607302 -0.05082933 0.11607676 -0.027919738 -0.14006323 -0.11028889 -0.09509038 -0.07938222 -0.44779652 -0.18051988 0.25677666 -0.25100783 0.40160948 -0.5670884 -0.613214 0.260686
thank 0.06694062 -0.13054363 -0.12440182 0.08449363 0.24730341 0.15781987 -0.1634819 0.10499224 0.11910891 -0.21583915 -0.13524643 0.28034294 -0.0754003 -0.36043534 0.020081189 -0.02566721 -0.097655214 0.2231197 0.17179656 0.5864606 -0.2279317 -0.039127328 -0.027843706 -0.45722008 -0.0035800242 -0.03243492 0.106712826 -0.050843164 -0.66464704 -0.21124114 0.05222839 0.21704988 -0.052472103 -0.10306099 -0.39163584 -0.50238633 0.43911433 -0.448518 0.47602525 0.078691654 -0.094902486 -0.36397356 -0.34224015 0.008425489 -0.23112704 -0.13616218 0.17626587 -0.035206415 -0.17467166 -0.092070684 -0.34193408 0.17768912 -0.07983652 -0.45556542 0.12586138 0.06656884 -0.12296185 -0.099021256 0.3722231 -0.1982845 -0.47187835 0.014663868 -0.06499883 -0.11119714 0.19234632 0.20266737 -0.051029503 -0.27819476 0.17043744 -0.4782717 0.31188214 0.11509842 0.025776817 0.018374236 -0.3116223 0.24903145 -0.15825547 0.2568081 -0.07848086 -0.14312446 0.45473263 0.054248154 -0.14683592 0.2220134 -0.13496993 0.0846111 0.09232164 -0.33203617 -0.06695551 -0.12837316 -0.04124471 -0.57988715 -0.3460745 -0.64884657 0.13528517 -0.443317 0.28378153 0.12082664 -0.077934384 0.2067537
time -0.15653259 0.089254335 -0.3378804 -0.19269772 0.25650722 0.05797457 0.056323215 0.024573814 0.063994095 0.040035926 0.07515907 0.16906318 -0.02973326 -0.03216589 -0.015825052 -0.031312283 0.011509031 0.2681532 0.41345075 0.08485104 -0.017490072 0.09559136 0.2501151 -0.35681528 -0.037805367 0.09817531 -0.011699953 0.021347702 0.3953001 -0.080834895 0.079439715 0.13843687 -0.050213054 0.004717775 0.15327275 -0.2840208 0.23598517 -0.18417783 0.099620424 0.13167617 -0.13523397 0.3429364 0.45358968 0.21312827 -0.40814954 0.0848132 0.060826577 0.008449348 -0.013333158 0.072965264 0.047363758 0.127651 -0.078301534 -0.33546618 0.35829973 -0.08811461 0.04246339 -0.28843942 0.06802308 0.2944312 -0.22534719 -0.23564918 0.19675365 -0.0147092845 0.46528536 -0.08077898 -0.108418696 0.27617016 0.01763869 -0.057348073 0.05771761 0.43188977 0.15429054 0.181445 0.27388623 -0.049370524 -0.4205302 0.34502032 0.018840004 0.22636664 0.4186218 -0.2026835 0.29352224 0.08421994 -0.26143903 0.11776354 -0.18100263 -0.19206461 0.07683685 -0.39822584 0.019152598 0.1689436 -0.016302504 -0.5278652 0.33053517 -0.41597492 0.21411857 0.113588065 -0.1258906 0.34039026
school -0.71074104 0.24214119 0.27807194 -0.2503391 -0.5358822 -0.2562942 0.2533997 -0.11838975 0.10319021 0.7680379 -0.1998152 -0.019875487 -0.5613826 -0.463972 0.096618146 0.028014796 0.18367589 0.62025404 0.075531535 0.056967545 -0.42240217 -0.26400375 -0.46301812 -0.3029147 -0.84446526 -0.082391664 0.032469757 -0.32048947 0.73455554 0.9763396 -0.37295887 0.23945643 -0.2851455 0.76917535 -0.2476742 0.046494447 0.1493992 -0.3080123 0.1567603 -0.3243462 -0.27887368 -0.34180063 -0.34379193 -0.28328186 0.250639 0.30601132 -0.58336926 0.03779087 0.114871986 0.6190228 0.29139552 0.5304314 0.34639758 -0.6735939 -0.053707886 -0.030148283 -0.46924412 0.101275496 0.41287366 0.14310844 -0.18570492 0.0017233925 -0.33526918 -0.5046276 0.41955617 0.539379 0.08270509 0.28146875 -0.16378267 -0.05918941 -0.121165104 0.07478294 0.09343098 0.6821374 0.26728088 0.11810019 0.09699934 0.2937651 0.3054193 0.0882872 -0.7140202 -0.12209098 0.5562843 -0.056803446 0.88117397 0.12054828 -0.15558733 0.2375421 -0.06242695 -0.07782573 0.73020697 0.1542127 -0.45582032 0.14770927 -0.12766686 -0.6530383 0.75886005 -0.42213497 0.88870656 0.707431
lol -0.31320736 -0.4070193 0.5302136 0.0064935638 0.0031164903 0.226486 0.3487429 -0.093646996 0.049935415 -0.008074334 0.18218444 -0.22661582 0.12253477 -0.17059049 -0.207226 -0.086504616 -0.32813162 0.26779744 0.18334584 0.60109186 0.060914394 0.23089156 0.25007367 -0.2915669 -0.26381725 0.31897318 0.39169663 -0.12797686 0.27170497 0.02848148 -0.04147713 -0.25584584 -0.046331435 0.29654846 -0.15514413 -0.24380092 0.09853162 0.31655046 0.6430661 0.27719885 -0.6027944 0.54724956 0.6533686 0.6032617 -0.39145154 -0.11332125 0.35917583 0.006686946 0.14448397 0.19113217 -0.15178683 0.71331155 0.15922612 0.1627538 0.1851965 -0.3390945 -0.18584992 0.6570783 -0.11580124 -0.22034676 -0.13762617 -0.44227308 -0.27414876 0.01703525 0.3736225 0.21290839 -0.2906855 0.04478734 -0.037455212 0.24184541 0.2747015 0.09247726 0.23695575 0.42871463 0.058259588 -0.010027824 -0.25035366 0.03992173 0.11125894 0.5152181 -0.306106 -0.020197727 0.6264824 0.101797864 -0.16754954 0.48578435 -0.4434906 0.64108264 -0.046361912 -0.05650431 0.24048682 -0.2682628 -0.18597403 -0.018858178 0.43192104 -0.21352825 -0.10888853 0.06412939 0.02506789 0.38414058
day 0.0070432653 0.12772582 0.17038716 -0.20881319 0.072414525 -0.07038429 0.0949626 -0.4325822 0.20258749 0.28871515 0.19606264 0.29166082 0.026525922 -0.39299768 -0.19735616 -0.4063428 0.3503765 0.20027173 0.4514601 -0.14036378 -0.38310692 -0.024868378 0.21037295 -0.20372549 0.24079394 0.21910745 0.06249395 0.10008185 0.013726157 -0.028156549 0.29802832 -0.28867254 -0.026611278 -0.19011103 -0.021305151 0.1338282 0.21795335 -0.38487193 0.3461889 0.38876596 -0.13701193 0.44112885 -0.059355877 0.46723932 -0.071872674 0.32755458 -0.10160557 -0.012206329 0.0010999066 -0.18803874 -0.24737427 0.157088 -0.113221675 -0.025493074 0.026110472 -0.1332959 -0.1319698 0.4333313 0.36177933 0.021415278 -0.24227259 -0.31266648 0.020565255 -0.09681458 0.44388822 -0.02822484 0.13004224 -0.3794632 -0.18105245 0.17822413 0.40524337 0.25312272 0.07116848 -0.39484778 -0.49084258 -0.0059166285 -0.35845262 -0.077270515 0.36909044 -0.088608615 0.09055448 -0.033424724 0.22009853 -0.46444416 -0.045975674 0.12769948 0.01566821 0.1515081 -0.1802135 -0.09756015 0.12374328 -0.30992228 -0.30238423 -0.19591357 0.054003857 -0.44790572 0.20129624 0.049242523 0.33808938 0.20121172
shot 0.035195418 -0.03223621 0.20449254 0.02800327 -0.009682227 0.33961 0.5387409 -0.14642464 0.38938496 -0.43327677 0.08322886 0.22336183 0.21521161 0.033346433 0.07001127 -0.4741531 0.626651 0.5637387 0.17070612 0.28485563 0.02390544 0.029707192 -0.37674272 -0.36635327 0.11155075 0.31348303 -0.19752546 0.13927726 0.26865977 -0.15298165 0.5975961 0.2560785 -0.7066988 -0.16336346 0.2618098 -0.4259016 -0.2439679 -0.0625881 0.22087912 -0.07162211 -0.21403703 0.09012541 -0.10952043 0.08274351 -0.18218091 0.17642951 0.05603703 0.19102708 0.24203491 0.16287944 -0.5271673 -0.06448147 -0.05894691 -0.26594436 0.61565447 -0.23143272 0.029961297 0.58690536 -0.14935938 0.020683687 -0.17691155 -0.5181332 0.028115913 -0.14864875 0.46830663 -0.08339546 -0.29499778 -0.33498064 0.050442915 0.19768287 0.22336426 -0.16364205 0.37983045 -0.27936593 -0.16220191 -0.08449305 -0.031801414 0.26487097 0.010350611 0.12635939 -0.35063443 0.3075071 0.26511416 0.18749174 -0.035918072 -0.013535934 0.021346431 -0.17123426 -0.47347525 -0.03067752 0.14903088 0.01622463 -0.42762953 -0.21575025 -0.3916119 -0.34927195 -0.40914065 0.033203878 0.19352522 -0.27174926
year -0.1168834 -0.43840235 -0.23781727 0.21937466 0.3350862 0.21650991 0.513197 0.5032243 -0.012103056 -0.0280205 -0.07216487 -0.20303656 -0.017953414 -0.12879029 0.30647337 -0.29746777 0.13492937 0.43422306 0.32239753 0.31475687 -0.095119044 -0.13203053 0.057938144 -0.22194844 -0.07641075 -0.22269575 -0.48590657 0.02764711 0.20651044 -0.070076816 -0.18338181 0.061587445 -0.16569991 -0.35371977 0.17283043 -0.22045499 0.20569374 -0.2577429 -0.17222223 0.16889167 0.16107698 -0.018911323 -0.35288334 -0.08026994 -0.12525073 0.20466965 0.22377248 -0.16394432 0.32442108 0.65248084 -0.0923475 -0.4706673 0.1815802 -0.37742388 0.12194848 -0.21075813 -0.03809747 0.31315976 0.23955381 0.21723592 -0.37930477 -0.17640588 -0.5372157 0.067736395 0.30682558 0.22950864 -0.30830914 0.347833 0.015000145 -0.13873354 0.042923424 -0.12066484 -0.11222972 0.11474404 0.08817909 0.16528936 0.18397717 0.53674984 0.4317546 0.07036875 -0.08080689 0.1570188 0.6624891 -0.15563834 -0.4388902 -0.24440959 0.05201287 0.12771909 0.27880108 -0.113766484 0.3048785 -0.036854733 -0.18627594 0.023674272 -0.2415539 -0.37554294 -0.05973971 0.07532742 0.0463927 0.26060542
thing -0.046484094 -0.14400671 -0.011055562 0.18404427 0.15769927 0.041654333 0.4309826 -0.18882112 0.36553237 -0.4790717 0.11391838 0.5389546 -0.27320606 -0.4000526 0.008359224 -0.43508452 0.1831428 0.32649395 0.63022137 -0.107080065 -0.35800517 0.21903296 0.3993258 0.056455065 0.24176987 0.3002253 0.015799956 -0.4133592 -0.1856181 -0.18774948 0.20797373 -0.17316803 -0.46367472 0.037533104 0.14089103 -0.12084555 0.27997965 0.061887924 -0.062349185 0.62130404 0.4900799 -0.11024275 0.24116732 -0.04832899 0.039628714 0.22688532 0.13757305 -0.18594831 0.37107214 0.44970998 -0.14150669 0.48153025 -0.23711064 -0.19532678 -0.42701012 -0.12359279 -0.032762717 0.21572462 0.13465248 -0.44339773 -0.423504 -0.33254126 0.08575648 0.019463431 -0.18538015 0.03726715 -0.1641662 0.10221572 -0.102983594 -0.17908381 -0.08915454 0.27054808 0.52601135 0.10779439 -0.09041296 0.12100441 0.16523328 0.00344048 -0.43046972 0.212478 0.45842788 0.13289218 0.009015979 -0.25166017 0.090332784 -0.061913423 -0.122719504 0.07943843 0.01979431 0.1277666 -0.24605158 -0.3087855 -0.2865958 -0.2207244 0.07161602 -0.20635074 0.13707604 -0.30735147 0.08685142 0.04959473
sir 0.2905576 0.31728312 -0.12257794 -0.27171314 0.33192682 0.04380615 -0.46774745 0.33849746 -0.16143882 -0.64457816 0.6548182 -0.46833608 0.326777 -0.56001353 -0.13965738 0.34737936 0.16121367 0.6543319 0.78152376 0.40407735 -0.6325434 -0.102758974 -0.34783033 -0.29120037 0.20800146 0.5021658 0.06653376 -0.14610803 -0.07316543 -0.08429975 -0.12681018 0.2988278 -0.45937613 0.5160239 0.051627297 -0.5603071 0.38374054 -0.22119008 -0.47656384 0.19533293 0.24963354 0.9345215 -0.048515927 -0.201861 -0.16328779 0.65754634 -0.16206193 -0.4710206 -0.1676145 -0.25179815 0.15184908 0.06673392 -0.105469 -0.84849495 0.004196738 -0.11378654 -0.7783591 -0.87348187 -0.295831 -0.10994758 0.20755464 -0.22507858 -0.61938447 -0.4364387 0.05102549 0.9031601 -0.13511452 0.53927076 0.5298509 -0.2501992 -0.13151342 -0.40266627 -0.28479943 0.6918567 -0.7959505 -0.17529656 0.012685845 -0.2620114 0.3822393 0.29406434 0.21273567 0.13426454 -0.11827679 -0.16028285 0.43419498 0.036796127 0.09065485 -0.45234856 -0.120437145 -0.049838565 0.27547857 -0.1539891 -0.36862028 0.39153412 0.28831375 -0.70988655 0.39844763 -0.5853073 -0.3756747 0.38069803
hai -0.32733336 -0.2440419 -0.27194354 -0.15295032 -0.0024163758 -0.26663798 -0.36128637 -0.018141605 0.4453321 0.1157643 0.4538053 -0.46946624 0.11438927 -0.3669371 -0.15570217 -0.36971265 0.08178819 0.16021974 0.12753023 0.33858162 0.55120146 -0.07518386 -0.6958158 -0.7683883 0.054494042 0.53827685 -0.10011899 0.34818068 0.3584746 -0.30562896 -0.736863 0.10941155 -0.41979045 -0.05837975 -0.34326416 -0.15848514 -0.24369489 -0.38835385 -0.5265127 -0.33591166 0.016314978 0.50766057 0.3452961 -0.42563608 -0.0806266 0.24957328 -0.0076985154 -0.27380645 -0.7696775 -0.49501953 0.7269607 0.21398829 0.44180176 -0.2761906 -0.15235572 -0.1971426 -0.16067642 0.14093351 0.3562394 -0.34796536 -0.25844753 -0.54817134 -0.038622525 -0.51083595 0.1383507 0.388813 0.24588588 -0.4211431 0.4407824 -0.31351388 -0.32977697 -0.11319264 -0.21555467 1.5074328 -0.26590592 0.629109 0.05938296 0.42924562 0.036602385 0.45320195 0.053341676 -0.17607729 1.1664312 -0.11514448 -0.50298345 0.3540471 0.24148475 0.31235695 -0.018359233 -0.36360243 0.64017725 -0.06396227 -0.40799072 0.07004987 -0.92825186 -1.1341864 0.60337055 -0.7034455 0.4940118 -0.4115631
guy 0.491554 -0.0045292457 -0.50798327 0.105079286 0.3381111 0.4134087 -0.034525096 -0.04277586 -0.010402789 -0.27112934 -0.0783362 0.24577726 0.41586757 0.21170048 0.2601492 0.43509436 0.2504382 -0.17160696 0.6468181 -0.24122955 0.31756333 0.24640118 0.5677162 -0.23992649 -0.13605396 0.36110002 0.3002914 -0.1958134 0.07800163 -0.27744052 -0.6652361 0.6554706 -0.13051385 -0.056145716 -0.43986833 -0.35698903 0.032633305 -0.25466073 -0.40888053 0.18767257 -0.43273646 -0.14720222 0.0873374 -0.056663454 -0.018737884 -0.053342987 0.10007789 -0.009598428 0.092657715 0.7976541 -0.60214067 0.9982845 0.2083631 -0.13766417 0.037675012 -0.37715554 -0.5382388 -0.31942743 -0.02681927 -0.23224454 -0.0985582 -0.15550919 -0.06601459 0.30730513 0.35970995 0.48775592 -0.44967955 0.5138002 -0.32019573 -0.03314293 0.54251444 0.07374303 0.42435873 0.006688994 0.27361485 0.20489599 -0.20455156 -0.75722075 0.33993605 0.61854583 -0.3416694 0.070194654 0.11970454 0.33093974 0.48819417 -0.4276003 0.16355047 0.06286205 -0.46360117 -0.18386517 -0.1361118 -0.2818413 -0.84332085 -0.13431115 0.26803896 -0.11228977 0.03955159 -0.34156445 -0.58072644 0.18455762
way 0.4488275 0.08519803 -0.504691 -0.14160295 -0.079280235 0.22886734 0.42172033 0.36944667 0.56333935 -0.027898649 -0.13523512 0.13774285 0.07650967 -0.09211893 -0.30350417 -0.25190398 0.16378036 0.061417434 0.31340465 0.05150734 -0.006989695 0.16126963 0.03586361 -0.33790493 -0.006967285 0.32316607 0.11288452 0.12696376 0.15475751 -0.22484325 0.02857568 0.14921606 -0.17999198 -0.11946189 0.13876411 -0.24667403 0.35062963 -0.12417172 0.33382937 0.41928896 0.020362416 -0.23606732 0.12760098 -0.0064733 -0.096737064 0.001976999 0.08465433 0.07702275 -0.056658726 -0.07046215 0.25047034 0.3135266 -0.16902013 -0.43762097 -0.25299853 -0.44879434 0.056272086 -0.02325116 0.06344046 0.35239342 0.058802944 -0.17918348 -0.003397152 -0.032516938 0.22510543 0.32092774 -0.47159222 -0.20683847 -0.5000721 -0.44855276 0.14520231 -0.062071543 -0.032386776 -0.34845135 -0.16454783 0.48472768 -0.22212124 0.09299037 0.13275641 0.17706092 0.3847034 0.24865048 -0.015812894 0.23247865 -0.024338506 0.30120444 -0.026113644 -0.07335002 0.07918477 0.055129766 0.0090473965 0.34699637 -0.43699983 -0.19109637 0.23274569 -0.09991942 0.078225635 0.33299914 -0.04363798 0.07191644
viru -0.27179646 -0.65888166 -0.5157037 0.124406464 0.24484538 0.32680905 0.10343833 0.286405 -0.033674773 -0.19463299 -0.09359925 0.011513208 0.24638732 -0.103631616 0.2094675 -0.018619526 -0.16020894 0.23341249 0.48850188 -0.0798752 0.5081538 0.07347781 -0.17119391 -0.3863977 -0.1868071 -0.061650027 0.041597314 0.021299163 0.5586862 -0.22442698 0.42486736 0.16907106 -0.6425557 -0.3990952 -0.01098259 -0.08421384 -0.41375306 -0.21069124 -0.07936078 -0.44100448 0.114074655 0.3547624 -0.06465733 0.012239911 0.2011863 0.24393688 0.09339377 -0.22552747 0.18954861 -0.1798961 -0.014584851 0.32261887 0.04081517 -0.06411415 0.58312166 -0.6745881 0.19722918 -0.15092982 -0.243793 -0.28266332 -0.4019377 0.18654083 -0.08484181 -0.2102358 0.55949974 0.4780967 -0.07377075 -0.013713696 -0.55357647 0.23962817 -0.45267498 -0.56272864 -0.17369953 0.5092749 -0.5365107 0.21652436 0.059947275 -0.04584239 0.0010169524 0.41044623 0.19347014 -0.39216208 0.2937527 0.38021818 -0.20077154 -0.103252344 -0.3717082 0.041437156 0.10543603 0.039344136 -0.14707793 0.029773515 -0.23674212 -0.2276184 0.33416224 -0.14296696 -0.6420717 0.37577763 0.034484193 -0.23108707
mom -0.031544983 -0.56143767 -0.027459351 -0.2767598 -0.29027185 0.31475297 -0.23023792 -0.34296507 -0.28343198 -0.0798317 -0.107381746 -0.006288984 -0.44259402 -0.15486866 0.47959003 -0.3550833 0.41015872 0.056467187 -0.039911304 -0.5429022 0.37244403 0.18724677 -0.2174946 -0.019722525 -0.13390702 -0.16715741 0.14417434 -0.13826269 0.59698015 -0.39735547 -0.07690562 -0.024001049 -0.34782928 0.2020734 -0.04001468 -0.6141618 0.35548002 -0.4398703 0.50040853 0.114206865 -0.24217658 -0.2459162 0.5551453 -0.09681208 0.59599113 0.1804244 -0.1383198 -0.087391675 0.62720364 0.38181257 0.39170563 0.09817298 0.44715208 -0.6236195 -0.15521157 -0.09109894 -0.02188958 0.7019186 0.31053963 -0.025545042 0.100209594 -0.52887565 -0.20234063 0.16048189 0.46332246 -0.34946823 -0.19257651 0.29171813 0.07859338 0.03961518 0.07149183 0.12102635 0.024026964 0.15359032 -0.8699785 -0.5198131 -0.49065754 0.18276998 0.15750287 -0.3275294 -0.30542865 0.08488543 0.07108806 -0.29018602 -0.5158043 0.39920515 -0.28257915 0.068524465 -0.46443266 -0.4326227 0.49321926 0.44672415 -0.19759588 -0.11975687 -0.030644253 -0.5760672 0.19762984 -0.18610686 0.06675457 0.25218904
famili -0.4711278 -0.115768164 0.44057098 0.37988284 -0.45253107 -0.36180708 -0.16184719 0.3148941 -0.4190259 -0.45417622 0.27326056 0.34857062 0.30240384 -0.23287044 0.84191906 -0.03184424 0.49987376 0.10756912 -0.011591738 -0.014315974 -0.2176834 -0.14496778 -0.62375283 -0.19852892 0.13683346 0.26841986 0.41656768 -0.24734636 -0.33156678 -0.5171676 0.4810098 0.22314456 -0.3837441 -0.108343504 -0.008997702 0.46761853 0.11876587 -0.044724736 -0.20793436 0.12859319 0.122518584 -0.016537765 0.013311809 -0.22581507 0.6346666 -0.0015396677 0.07539929 -0.1785222 0.24067928 -0.3471212 -0.16529235 0.43002042 0.10876184 -0.5728212 0.14553371 -0.4817799 -0.5540603 0.3352435 0.29727176 0.15565905 -0.588049 -0.51207256 0.05004612 0.021800926 0.42453125 0.036234275 -0.4376309 0.18165958 0.3686071 -0.4621227 0.756191 0.4040399 0.7396456 0.07848073 -0.40207672 0.14552489 0.035050716 0.24954726 -0.2710354 -0.063478716 -0.1980432 0.028757308 0.4423301 -0.25915033 -0.047088742 0.12807395 0.11213135 -0.107296206 0.22488639 -0.1955068 0.40872234 0.29947037 0.10374154 0.27768517 -0.022084694 -0.25893676 0.334269 -0.052051473 -0.37700123 -0.12128234
doctor 0.19589388 0.017704282 0.14500383 -0.27050987 0.11561318 -0.03858223 -0.023339234 0.25497603 0.18392931 -0.39576522 -0.36756536 0.2378384 0.3643097 -0.36486712 0.21727827 -0.05905044 0.41946194 0.5182071 0.60513157 0.18667562 0.576421 -0.09029104 0.13559255 -0.23058742 -0.17294297 0.46177778 0.062643796 -0.50448835 -0.00029506677 -0.51392496 -0.23254006 0.045686077 0.14603634 -0.27386305 -0.17599614 -0.23936652 0.06653143 -0.22416264 0.17252402 -0.07045577 -0.2070284 -0.09383697 -0.39483988 -0.08773606 0.21046235 0.2682318 -0.09410918 0.46467897 0.3170141 -0.007342139 -0.04756217 -0.21445543 -0.34384897 -0.20811865 0.23649253 0.18008506 -0.0786348 0.26502225 0.5677588 0.3201718 -0.27607188 -0.39514902 0.19183902 -0.00010022222 0.100081444 0.41180515 0.22901165 0.21234152 -0.055754635 -0.49808234 0.012406018 0.122048326 -0.05055686 0.08245348 -0.5337704 0.10813651 -0.60158026 0.03295766 0.3392065 -0.05898351 0.55320567 -0.33290297 0.40892375 0.11013783 0.08477145 0.12962346 0.34901506 0.0705026 -0.30314603 0.14002702 -0.5773055 -0.13813227 -0.69506747 0.30218044 -0.06347915 0.026247624 -0.2745537 -0.42630962 -0.8339877 -0.0018358735
man -0.25303984 0.2419478 -0.4648014 0.33953318 0.25158405 0.3367097 0.06519503 -0.8764394 0.47069395 0.26377866 0.17398407 -0.5315208 -0.18472055 -0.62908226 0.32621667 0.7216617 0.31251305 0.14551505 0.46614772 0.30246335 0.35392618 0.12745361 0.344215 0.15078364 0.037517596 0.100047655 -0.20473811 -0.13682047 0.4683621 -0.657055 -0.4135545 0.16339567 0.0034774756 0.2926362 -0.22069715 -0.19593993 -0.22397274 -0.323652 -0.10264198 0.13789487 -0.42275906 0.107990295 0.15863891 0.10270783 0.17826429 0.09341969 -0.51289296 0.24153738 0.40238336 -0.26791784 -0.8537099 0.42266035 -0.24840994 0.18338309 -0.17300501 -0.04313982 0.23018599 -0.26768816 -0.36211044 0.21147437 -0.29256013 -0.41620514 -0.22313926 0.29992753 0.22950032 -0.13922015 -0.46409795 0.13806532 -0.08415104 -0.86751854 -0.006231715 0.3146919 0.054066435 0.06794484 0.14169997 0.80751395 -0.24839689 -0.33434123 0.2542586 0.11275233 -0.267834 -0.036836673 -0.16155311 0.112379424 0.32332015 -0.1836628 -0.27420202 0.34676892 0.5801821 0.21098575 -0.15616366 -0.099392615 -0.49824762 0.3844204 0.18817495 -0.57887733 -0.027550798 -0.035981312 0.097473636 -0.047512036
kid 0.13467036 0.43533728 -0.21355705 -0.2850648 -0.28338948 0.64280576 0.7769001 -0.38530713 0.2236137 -0.07608491 -0.31035012 0.71489763 -0.21896723 -0.08142181 0.2034488 -0.16328964 0.55415297 -0.11419582 0.7272454 0.065281056 0.15418343 -0.17366253 -0.1288526 -0.71133476 -0.081658214 -0.19856483 -0.029620316 -0.20081879 0.7490538 0.19303536 0.42370686 0.4517833 -0.657149 0.040087145 0.17513119 -0.8342754 0.60103446 -0.57289225 0.09854149 0.52251494 -0.14244191 -0.06157681 0.12361153 -0.082972124 0.040631723 0.39457676 -0.5308388 -0.63340044 0.21055456 -0.10539919 0.23547329 -0.10954946 0.61662155 -0.7730253 0.27061144 0.30985892 0.3140053 0.17696992 -0.13643327 -0.034584884 -0.2671947 -0.08889584 -0.058341194 0.071048155 0.11497698 -0.14902925 -0.15508348 0.0034172246 -0.4925311 -0.043036286 0.075958356 0.17594907 -0.097712904 0.25316247 -0.07609529 -0.2392036 -0.3744571 -0.048638042 -0.20279266 -0.2840621 -0.4640492 -0.08886841 0.40684086 0.041865207 -0.45251828 0.3527443 -0.0044438574 0.45557097 -0.067426436 -0.0011741784 0.56569463 -0.36263338 -0.11645428 -0.021631816 -0.32332286 -0.109057836 -0.24667718 0.6924583 0.63525164 0.26949573
girl 0.047605436 -0.93253016 -0.85297656 0.09977446 -0.0110156275 0.22610483 -0.28224158 -0.41995776 -0.013477674 0.22151913 -0.1888609 -0.6275967 0.4503423 -0.1712407 -0.21527104 -0.3214856 0.71056706 -0.08641175 0.59514356 0.31876877 -0.15972126 0.08666484 0.10068121 0.16395521 -0.19204937 0.36293608 0.29579982 -0.16862673 0.59595704 0.14823443 0.62010235 0.28323784 -0.24564023 0.36335617 0.90766937 -0.37372944 0.37611386 0.2110748 0.051687248 0.22834238 -0.4573079 -0.17159723 0.19352242 0.14755279 0.6358518 0.409898 -0.25501332 -0.780148 1.1402172 -0.0070255524 -0.77395636 0.019278193 -0.014576928 -0.39580256 -0.3529627 0.29749152 0.21185817 0.6062145 -0.51560175 -0.71344954 -0.68521905 0.40769422 -0.97440314 0.64374447 0.25252634 0.7339781 0.035228826 -0.018099967 -0.44875282 -0.19180612 0.06064336 -0.185317 -0.17302676 0.8476966 -0.265134 0.69641674 -0.693321 -0.05065754 0.023491334 0.26983017 -0.093903385 0.106163815 0.41270396 0.33137313 0.08434402 0.69460917 -0.37850145 -0.017391296 0.20054257 0.6447503 0.5136086 -0.180741 0.22985774 -0.35673502 0.059956215 -0.14661676 -0.11187856 -0.35470462 0.47550035 -0.13210373
bill -0.3117498 -0.19546066 0.041216783 -0.15324274 0.26951405 0.072309904 -0.21135879 0.09283578 0.016770821 -0.60931665 -0.31359392 0.3561283 -0.06396537 -0.47193494 -0.07121562 -0.6925673 -0.39534774 -0.36269644 0.44227102 -0.23977697 -0.32950443 0.6346148 0.29658595 0.5138872 -0.9259054 0.48689598 0.45099175 0.04353659 0.4669482 0.8757979 -0.18071826 0.09533775 -0.67207384 0.06880741 -0.25469163 -0.59317595 0.63187003 -0.59303653 -0.18617588 0.660244 0.36247832 -0.1284792 0.18070859 0.6560001 0.3195184 0.4127957 0.5733038 -0.4587721 -0.12022292 0.17885064 -0.9713277 0.7831907 0.46857908 -0.23538154 0.4874325 -0.36937496 -0.9294599 -0.042911828 0.74214506 0.321474 0.38451767 0.66757464 -0.028873794 0.03909878 -0.08700823 0.23596928 -0.36120915 -0.088660195 0.036104493 -0.86935604 -0.29121706 -0.1574649 -0.19406475 0.19712625 0.14464393 0.6204832 -0.2947743 -0.047377177 -0.32435215 0.44899565 0.38558874 0.021426875 0.20998995 -0.11514479 0.3042429 0.10087521 -0.62835735 0.3038745 0.40509832 -0.19146194 -0.27544126 -0.3260383 -0.09866962 -0.2585554 0.16334945 -0.54990876 0.23565103 -0.19090293 0.4386172 0.30392492
one -0.21655965 0.1616636 0.04987221 -0.019643633 0.19532937 0.221259 0.5133024 -0.013357561 0.40151298 0.072123595 -0.31934425 -0.024233585 0.20390666 0.49854276 0.29960606 -0.48789883 -0.14974791 0.47720522 0.5949398 -0.04083146 -0.10682116 0.06299518 0.13522242 0.0888346 0.08173672 -0.28667355 0.11738062 -0.35766414 -0.095841005 -0.76735765 -0.26586464 0.10453551 -0.12229322 0.357864 -0.4678932 -0.023902256 0.01595494 -0.44534805 -0.017333822 -0.0367892 0.049043674 -0.635179 0.09798239 0.13116299 -0.13383858 0.49719328 0.1153183 -0.23513842 0.20797655 -0.44326073 -0.16561626 0.28508887 0.10234318 -0.12041612 -0.33327973 -0.020565603 -0.013495862 0.6430076 0.40584114 0.25475025 -0.047157913 0.020167703 -0.31724986 0.4283785 0.5103737 0.36487964 -0.33392432 0.33969223 -0.04072933 0.18314047 0.18599516 -0.34322134 0.09901431 0.39581785 -0.14986031 -0.012548779 -0.32798472 0.21013162 -0.22530583 -0.09072899 -0.114755645 0.113876596 0.25331715 0.11049162 0.13241035 0.15844661 -0.25381953 0.008036967 0.11078443 -0.17943834 -0.00814142 -0.10821809 0.0010776746 -0.20573875 -0.45508832 -0.014525896 0.41160503 0.2246094 0.16631104 -0.3258645
pleas -0.2064207 0.030306723 0.6837856 -0.14538272 -0.022551948 0.19673817 -0.21124296 0.37969103 -0.0628297 0.24853173 -0.021096447 -0.29027957 -0.3209984 -0.030823324 1.0687332 0.039832763 0.14102748 0.58376664 0.56161356 0.20846094 -0.33149114 -0.0777262 -0.20836842 0.059625335 -0.12934513 0.3590656 0.38237408 -0.330307 0.19624674 -0.23069811 0.017717795 0.574377 -0.10668512 0.21753484 -0.5895831 -0.6157395 0.2650906 -0.073192924 -0.74570507 0.19050038 -0.0023901945 0.1628868 -0.32994527 0.117590636 0.47730345 -0.13992083 0.054942455 -0.27013448 -0.1564892 -0.22680499 -0.43659544 0.04762329 0.31279323 -0.3073651 0.4903623 0.2598747 0.74797475 0.05090743 -0.11297892 0.18164238 -0.2873066 -0.3644423 0.16365364 -0.17449251 0.46484807 0.109151565 0.11665561 -0.10449573 0.11746333 -0.4102928 0.094815485 0.034230914 0.50441515 0.60874516 0.156907 -0.08316927 -0.3261187 -0.35270986 -0.17461073 -0.110111445 0.3726891 -0.19203767 0.35431746 -0.09443775 -0.5599966 -0.027902855 -0.39284202 -0.06668984 -0.036248557 -0.15243454 0.39759696 0.20153075 -0.24204475 -0.53921866 0.19464016 -0.12396677 -0.22722343 -1.044379 -0.52114475 0.5716099
everyon -0.009460536 0.06778767 0.049265176 0.065163165 0.42478657 0.23317988 0.025448084 -0.3057454 -0.45556197 -0.41681105 0.14996585 0.1494472 -0.13785921 0.13564213 0.5329438 -0.25772142 -0.29000434 0.13057122 0.3589712 0.65732723 -0.014232472 -0.06801001 0.4822223 -0.6027767 -0.200042 0.26839334 0.22894119 -0.39221665 0.34506434 0.16556162 0.38615283 0.5731832 0.07176452 -0.21965426 -0.57614034 0.36160573 0.02125344 -0.5877494 0.14475143 0.29085958 0.36241457 -0.5021823 0.08482411 0.15623453 -0.17069098 0.40919578 -0.047186412 0.117992215 -0.04572608 0.22675887 0.089077994 0.7024047 -0.41089272 0.17469613 0.32405555 -0.444601 -0.11390359 -0.0011069725 0.22458759 -0.08343844 -0.49374676 -0.40658695 -0.08103462 0.039446738 0.5939249 -0.33752006 0.24817836 -0.09003222 -0.00026094055 -0.119343854 -0.15017097 0.042623162 -0.090489924 -0.2207214 -0.17500561 0.023362122 0.14834353 -0.100526586 0.012559584 -0.22115965 0.16088246 0.71655345 0.5711637 -0.35590714 0.18333176 -0.43313178 -0.024314309 -0.013396134 0.1385713 0.014645044 0.40108252 -0.10333612 -0.16823374 -0.5962524 0.05742073 0.07661068 0.19804084 0.085318044 0.1654148 -0.17262796
mask -0.18281123 -0.53102773 -0.3034238 -0.23845774 0.122183725 0.5161618 0.29868063 0.2557728 0.27270436 0.03426895 -0.20712382 0.2033937 0.12280117 -0.38054344 1.1488824 0.4947521 0.01226885 0.18543664 0.37933803 0.46120873 0.25481337 -0.27786255 -0.041902665 0.013024321 -0.7936635 0.12364804 -0.1685105 0.38819826 0.06421181 0.25137794 -0.28256562 0.10929014 0.20654872 0.23794411 0.22470553 0.08717016 -0.1346684 -0.37358844 -0.113848805 -0.10013384 0.09712567 0.52100956 0.6608417 -0.22056526 0.511108 1.1405883 0.091314286 -0.092495784 -0.3686012 0.22115032 0.25538555 0.29469106 -0.39280456 0.18834291 0.2740747 -0.34245282 0.016388766 0.17238566 0.0044089034 0.57922584 0.05826773 -0.034711868 -0.60635173 -9.383619e-05 0.21507251 -0.24634872 -0.5958107 -0.14979528 -0.7021576 0.007134251 0.35847148 0.49753234 0.091072686 -0.050365683 -0.4791851 0.1200601 -0.285311 -0.6869289 -0.19403066 -0.1402827 0.1544431 0.15801427 0.13319813 0.15344389 0.18218474 0.40562758 -0.5743806 -0.15964366 0.24443741 -0.8691077 0.10709168 -0.88309 0.26535448 -0.31483492 -0.67043257 -0.29272476 0.22110489 0.14824995 -0.16112688 -0.100546025
effect 0.019620676 -0.72111 0.19528948 -0.14066643 -0.033424307 0.029110288 0.17385226 -0.23889397 0.90769637 0.26814494 -0.08216519 0.1902898 0.18631269 0.03784844 0.8766578 -1.1211903 0.23293145 -0.031366546 0.017334532 -0.0051659886 0.48949254 -0.251321 -0.060646128 0.046631355 0.06361642 -0.13222395 0.2665059 0.03995252 0.035071082 -0.47194156 -0.49656054 0.10128972 -0.32327664 -0.13499062 -0.028801924 -0.1374949 -0.16544905 -0.10467716 -0.032291763 -0.3373889 0.34495446 -0.12414842 -0.07341961 0.70455813 0.13649356 -0.10324339 0.18569209 0.167922 0.1441028 0.022101756 -0.15971096 -0.081745625 -0.25378954 -0.5019812 0.20064196 0.20017838 -0.3742362 -0.03132701 0.08872315 -0.1464152 -0.6954432 0.32910773 -0.5053296 -0.20941661 0.35143664 0.19599426 -0.6376519 0.10261526 0.0068343882 -0.022677347 -0.09239838 -0.26310304 0.42838797 -0.3454307 -0.35142758 0.25767407 0.0026540894 -0.19911647 0.102125056 -0.05107343 0.16919771 0.0782298 0.7569847 -0.017774584 0.5274418 0.23494431 -0.24734092 -0.066898964 -0.13778473 0.046729866 0.039899625 0.6014693 -0.20691535 -0.1584419 -0.29511687 -0.4122165 -0.121311866 -0.028455298 -0.188602 -0.4293482
work -0.14965639 -0.67408526 0.16572806 -0.389228 0.123601116 0.26125363 -0.046176005 0.53751856 0.14689925 -0.57448137 -0.5365643 0.56727284 0.2542132 -0.5682743 -0.05885224 -0.090256594 -0.03248602 -0.27586448 0.64899045 -0.35412621 -0.6201507 -0.3673891 -0.17614537 -0.660905 0.43522996 0.42503935 -0.047825724 -0.050133865 0.13552138 -0.15934329 -0.2445757 0.41204894 -0.5442292 -0.20177244 -0.3317527 0.01526843 0.84597373 -0.34743354 0.32900202 -0.03980405 0.71792835 -0.11101761 0.1922731 -0.042606592 -0.2536917 0.048397403 -0.23285368 0.09264365 0.2802909 -0.16825457 0.44400877 -0.019555077 -0.29332334 -0.12460277 0.23127528 -0.47102985 0.18431988 -0.046356462 -0.3705111 0.3716513 -0.3430911 -0.15395889 -0.07552729 0.7867032 0.25232762 0.15396717 -0.41144732 -0.19764826 -0.6137356 0.13110346 -0.052341398 0.48996514 0.1753997 -0.11885469 0.12477561 -0.07941097 -0.20814174 -0.25088266 -0.09169333 0.34714112 0.17336762 -0.0658744 0.058456033 -0.36688274 0.28735152 0.002559594 -0.0059524183 -0.1629328 -0.5182283 -0.16062574 -0.09501923 -0.3151346 0.048723556 0.0016323613 -0.32661113 -0.11344531 0.052656647 -0.28613567 0.2532981 0.2572271
blood -0.109849766 -0.53695387 -0.1653238 -0.021274177 -0.00064200856 -0.030413756 0.37185797 0.2240735 0.18853055 -0.4097334 -0.35395586 -0.050439063 -0.5805691 -0.28471678 0.37127283 -0.11654728 -0.02436724 0.7334656 0.3623161 0.10411427 -0.14870903 0.4862697 0.13350351 -0.45487097 0.32937348 -0.18570319 0.20303765 -0.57318544 0.009925118 -0.22815098 -0.02835556 0.12885584 0.014414905 -0.118551955 0.17685543 -0.20852633 -0.30091262 -0.6566017 0.21214136 0.33982378 0.16712938 -0.43546072 0.2558333 0.27857095 0.07275297 -0.16127768 0.16752616 0.06945421 -0.13731499 0.39564967 -0.6825989 0.1371791 -0.41406578 -0.017127665 0.3112873 0.022340646 0.23554456 0.08404252 -0.16217922 1.1803875 -0.29553887 -0.004418764 -0.38576844 -0.90135324 0.44825232 0.30919614 0.13363148 0.14445251 -0.037269417 0.030091245 -0.34959868 -0.24342145 0.33061397 -0.19280246 -0.55672735 -0.17629366 -0.7961641 -0.012507068 -0.2570584 -0.18912406 0.30541146 -0.3848786 0.3051074 -0.0032464971 0.40004042 0.2980534 0.38004217 -0.4617005 0.16704778 -0.32003844 0.65826625 0.36327738 -0.09282302 -0.3008745 -0.064706184 -0.29675403 -0.2744843 -0.20489837 0.42780772 -0.22322088
nice -0.3371323 -0.32658833 -0.25268236 -0.3166127 -0.1314535 -0.046636846 0.41573113 -0.26711175 0.19719514 -0.25176558 0.26941422 0.40918976 0.17645973 -0.6070418 0.3730588 0.3489777 0.013231479 0.26671818 0.7835938 0.30489594 0.39208722 -0.13201234 -0.53697723 -0.91412026 -0.06424242 0.4202865 0.4788261 0.3590561 -0.0015447023 -0.36947474 -0.17140326 0.44810382 0.13590325 0.01071331 -0.18295687 -0.5588811 -0.028496578 0.02455643 -0.3437169 0.14340007 -0.614256 0.25501427 -0.3111136 0.07024584 -0.12023817 -0.600904 -0.5192043 0.09993963 -0.23263551 0.094640285 -0.018716691 -0.06517048 0.25975135 -1.0177387 -0.38019562 0.39638692 0.14076902 -0.0557742 0.3522839 0.056773074 -0.19061568 -0.046431053 0.26484644 0.40736935 0.26263368 -0.27268347 -0.23537508 -0.34063703 0.56740683 0.2117598 0.19234031 -0.6865411 0.055923104 0.33864737 -0.110130094 0.80672413 -0.37896183 -0.6495287 0.17257875 0.14628015 -0.3837129 -0.38091734 0.06980468 0.14103112 0.2920777 -0.14671512 -0.14198169 0.047047492 0.6663758 -0.50849146 0.7288024 -0.64781016 -0.12016385 -0.5576943 -0.08242845 -1.1982548 0.65753734 0.21210857 -0.47925004 0.0898944
clot 0.027921867 0.032488216 -0.5136917 0.07525631 -0.09992057 0.0061199553 0.29579797 -0.16391742 -0.32409117 -0.42786366 -0.4322614 -0.3681033 -0.38500315 -0.3951342 0.4538112 -0.7511679 0.42380315 0.57783556 0.5478692 -0.035963863 -0.19557594 0.20116782 -0.07013238 -0.7267991 0.4076128 -0.2605935 0.48667872 0.49920097 0.16494091 -0.8187982 0.13121118 0.13648401 -0.14373465 -0.16055807 0.06405986 -0.12555358 -0.13387324 -0.38323954 0.5119881 0.3971562 0.045005612 -0.5594769 -0.14744946 0.22965895 0.43760112 0.26621255 0.1399996 0.57213736 -0.072183244 0.36423835 -0.97340393 0.044256773 -0.17798671 -0.2774543 0.5946563 -0.68321955 0.1449591 -0.012936218 -0.23896049 0.6745351 -0.24488693 0.5235051 -0.07940493 -0.58746135 0.2607142 0.043079697 -0.058601033 0.25273725 -0.06495514 0.20846921 -0.32255983 -0.18843174 0.5253394 -0.43324345 -0.39671806 -0.18852666 -0.33334514 0.09894703 0.021633806 -0.12589514 0.20031105 -0.60926336 0.18642397 -0.009830044 0.42098385 0.38411593 0.2542766 -0.19809127 -0.19095701 -0.3279004 0.5068908 0.134209 -0.29448014 -0.14377326 -0.26536867 -0.49885 -0.06789868 -0.34095 0.46535647 -0.28731582
god -0.21571478 -0.46427354 -0.5162236 -0.02466779 0.5125889 0.04436509 -0.11713453 0.09923298 -0.27846676 -0.6255189 0.23286095 -0.0062957215 0.62219846 -0.84091914 0.39541712 -0.51014954 -0.09215993 -0.25547406 0.5497888 0.31326374 -0.24429913 -0.57640564 0.6605971 0.22478074 0.2589818 0.022200085 0.24046254 -0.18156403 0.23222812 -0.7466576 -0.08132216 0.42270678 -0.20529027 0.24585329 0.5264556 0.08604302 0.32469925 -0.037651464 -0.16482489 -0.23318002 -0.35666618 0.45330796 -0.2248321 -0.41709054 -0.18544996 0.14872774 -0.013609355 -0.3655349 0.29927704 -0.042122263 -0.12904243 0.006030203 -0.5723949 -0.2196105 0.63481325 -0.53859866 -0.23844752 -0.29591087 0.40921268 -0.03178581 -0.36359778 -0.2935288 0.40557283 -0.050037045 0.6672162 0.4985623 0.51705194 0.5121958 0.3738883 -0.043879695 0.22676517 0.1382686 0.41294578 -0.0331187 -0.7985596 0.6593115 -0.05814842 0.113161586 -0.17814419 -0.66131014 -0.2339021 0.45150083 -0.15171139 0.20058246 -0.15208258 -0.11855966 0.08952377 -0.66248137 -0.3184884 -0.53890586 0.11017808 0.39823586 -0.077719405 -0.99696255 0.32409477 0.20311886 -0.21630898 -0.14926238 -0.26933277 0.06299095
lot 0.008645093 0.020840794 -0.08437368 -0.27753195 -0.30289668 -0.22865847 -0.11415854 -0.07853281 0.07674074 -0.35470667 0.225953 0.22286756 -0.3942876 -0.0705457 -0.46028394 -0.7768632 0.22028205 0.023925956 0.24817932 0.20778708 -0.51219213 0.12940249 0.08179302 -0.34290066 0.46172258 -0.14310646 0.1582828 0.14142142 0.62103385 -0.043656193 -0.18954276 0.16044766 -0.20258015 -0.3747377 0.5182015 0.2893562 -0.04542171 -0.35579675 -0.5422269 0.26758924 -0.32185888 -0.15414022 0.020373315 0.3857639 0.103216924 -0.054248646 0.65972173 -0.121903986 0.37826416 -0.059037916 -0.07264019 0.27421 -0.06076164 0.24531204 -0.2584559 0.27391827 0.38558924 0.19061 0.06637008 0.14978455 -0.6618857 -0.37942827 0.31875044 -0.2739027 0.5387084 0.16694263 -0.29863903 -0.2804055 -0.27657676 -0.22785217 0.015758887 -0.041696012 0.08372749 0.21683767 0.004269782 0.37920684 -0.41612858 -0.12624313 -0.4856993 0.2295917 0.33248216 0.58882904 -0.12241876 -0.15304737 0.31995642 -0.0051354496 0.004885892 -0.010203242 -0.10385665 -0.30405137 -0.21113119 0.11134233 0.12144046 -0.25547954 -0.54553306 -0.7517914 0.17846102 -0.38643286 -0.20451017 0.070043646
mike 0.6033586 -0.39306 0.010386188 -0.45758823 0.4523576 -0.12712257 -0.44227374 -0.48738882 0.49433398 -0.3426739 -0.48172167 0.19829914 0.21508104 -0.032182656 0.33958864 -0.13497905 0.18924 0.26666614 0.5350604 -0.12772486 0.29073846 0.09540031 -0.4547993 -0.35350662 0.40336877 -0.14962026 -0.34455666 -0.2655436 1.1184489 -0.3935191 -0.5734537 0.38613218 -0.13625965 -0.08784064 0.012258996 0.46459407 0.4769399 -0.7999955 0.67486376 -0.18876748 0.31555513 -0.69517267 -0.101232916 0.043726414 0.030500062 0.15394586 0.48372555 0.066225894 0.0022810386 0.16381985 -0.48360536 0.30653554 -0.2924078 -0.021445364 0.24512142 0.35328406 -0.35275263 -0.56011754 0.5190794 0.68973625 -0.12155999 -0.34561184 0.10067335 -0.5932405 -0.10980214 0.18536411 -0.45570558 -0.09035521 -0.097845726 0.23194318 0.80911106 -0.0048590526 0.059289467 0.283457 -0.055626836 0.22708116 -0.26492745 0.021978041 0.6202399 0.05418126 0.49121243 -0.053536016 -0.17392783 0.039252467 -0.14433064 0.3560227 0.87877774 -0.16876039 0.15496533 0.26395816 0.57103914 -0.24377316 -0.11767132 0.09577957 0.22929683 -0.23339087 0.41316393 -0.37626338 -0.12797187 -0.3400799
life -0.20674948 -0.41392943 0.21674232 0.30091482 -0.20809141 -0.07729925 0.122032665 0.5220422 0.09430014 -0.19116741 0.4567029 0.26057842 0.23162034 -0.26176628 0.5086129 0.16716789 -0.30840477 0.11091295 0.36701804 -0.63220274 -0.24691668 -0.19648238 -0.0892664 -0.3228394 0.27205446 0.51356906 0.3882683 -0.21476632 0.680658 -0.056470886 0.19551252 0.41862267 0.0962961 0.32187757 -0.24112463 -0.18762326 -0.19671151 -0.32789806 0.018343052 0.23526874 0.32095477 -0.14948152 -0.1334429 -0.26868615 -0.22023067 0.188526 -0.25168243 -0.3990724 -0.4240232 -0.08498646 -0.090199016 -0.4856696 -0.03307871 -0.3530555 0.41670617 -0.26552638 0.096352845 0.42508042 0.26911545 0.09386544 -0.098670766 -0.91133404 -0.17494234 0.08011693 0.16974796 -0.38829854 0.23521818 0.47252795 -0.5154261 -0.39313006 0.03289404 0.42381653 -0.059049454 -0.45832872 0.025788428 0.23489456 -0.1754556 0.018124115 -0.18518516 -0.34333676 -0.42483613 -0.29826087 0.40714568 0.7390301 0.49716932 0.3939322 0.13320518 0.033970177 0.020256143 0.018232733 0.17480136 0.5021658 -0.08053252 -0.46012974 0.1955912 -0.7765576 -0.5773422 -0.6013099 0.12295833 -0.46873614
week 0.49892062 0.07812679 0.09790593 -0.12196431 -0.32728598 0.01764797 0.14313684 0.23607051 0.5519479 -0.28409633 -0.38283837 0.1297045 0.3645153 -0.5851798 0.12708443 -0.34778336 -0.19504297 0.6063947 -0.022790985 -0.03606998 -0.010756669 -0.14496014 -0.62775785 -0.0010164274 0.271624 0.13861349 -0.4713385 0.35470906 -0.27191672 0.24356306 -0.19152394 0.11800038 -0.16140316 -0.26937875 -0.1042712 -0.41656396 -0.27996314 -0.5687744 1.1160333 0.31448564 0.04252232 0.3610855 0.039052363 0.28277233 0.19889008 0.38161957 -0.029949319 -0.10885812 -0.11269553 0.46086073 -0.37658352 0.060254466 -0.2526909 0.1712856 0.06265354 -0.0076599834 0.26612863 -0.21665561 0.7212431 -0.1917282 -0.42470858 -0.0014891617 0.3472686 -0.26583332 1.0031749 -0.34695086 0.06416311 -0.27504042 -0.34468812 0.34618518 0.10463417 0.3449387 0.18330151 -0.3515797 -0.38300425 0.31980452 -0.69255406 0.48647916 0.19206928 -0.16567811 0.14284241 -0.121131696 0.10685562 -0.5323115 0.22873192 0.300982 -0.27137828 0.08578511 -0.18463896 -0.16865025 0.12252018 -0.19007477 -0.18475364 -0.0037542693 -0.54866 -0.41982 -0.1932782 0.35829708 0.23944713 0.7250587
someon 0.22183634 -0.46765938 -0.4875858 0.0528894 0.12555057 0.35092 -0.049501862 -0.17595007 0.1993129 -0.22229396 -0.20616707 0.06519493 -0.44465268 -0.48912743 0.33413443 0.007334634 -0.37617078 -0.2627717 0.4476354 -0.44162598 -0.28079724 -0.1293771 0.32540774 -0.2190829 0.34283242 0.020370705 -0.0402283 -0.48245755 -0.4933457 -0.2114343 0.061909124 -0.24358582 0.063100316 -0.67989063 -0.55008477 0.16813129 -0.6716793 -0.11794172 0.5132244 0.5315 -0.26312226 -0.13374539 0.210321 -0.20631576 0.3721332 0.85243315 -0.23222569 0.29698494 0.48395687 0.025387285 0.02832543 -0.041896418 -0.025811981 -0.8282831 0.07961488 -0.41655305 0.18834226 0.5934456 0.09267268 -0.19689417 0.21374077 -0.32150114 -0.26227593 -0.18635277 0.27914834 -0.22116072 0.10629349 0.085349955 -0.2641823 -0.24124414 -0.06746319 0.11027537 -0.22739409 -0.3770873 0.1940602 0.064009 -0.3453897 0.5290743 0.084924094 0.04368474 0.77465844 -0.05452379 0.53215677 0.040243898 0.24280995 0.34450808 -0.32688516 0.13328816 0.3533679 0.015522773 0.212996 -0.05184593 0.01078758 -0.63187134 -0.29440278 -0.593557 0.07148676 -0.31109276 -0.17449288 0.26720247
risk -0.097756505 -0.015119166 -0.2162032 0.46279442 -0.07252775 -0.06143138 0.81034803 0.12379514 -0.24338424 0.2968874 0.76950264 0.29320177 -0.20832609 -0.14949612 0.21421072 -0.5936548 0.07567653 0.3547932 0.6122486 -0.18349996 -0.22535385 0.46468362 -0.07023642 -0.06828707 0.40777886 -0.19375607 1.0902038 -0.21279347 -0.06000131 -0.2812656 0.4987613 0.24111854 -0.8170485 -0.11602186 0.12332427 0.39199844 -0.17525312 -0.503332 0.28396153 0.20817508 0.51677316 -0.26741332 -0.2619438 -0.042635594 -0.12702055 0.36405596 0.10233474 -0.20114386 0.34505254 0.06400373 -0.22129528 -0.08580701 -0.012296407 0.13756576 0.84458095 0.16128232 -0.0017222965 -0.18174528 0.2896367 0.40506813 -0.10765104 0.69871235 -0.71868885 -0.20703629 0.37338346 0.20672888 -0.32181156 0.334704 -0.055899393 -0.09822312 -0.2650917 -0.024199668 -0.20959821 -0.009025295 -0.30291897 0.32929677 -0.33717495 0.2661116 0.12666363 0.2593491 0.19048081 -0.005548275 0.16250788 -0.36052057 0.002596277 0.33932477 0.08387618 0.067891546 -0.49538746 0.30288854 0.5739299 -0.3745384 -0.17645863 -0.06899687 -0.9937533 -0.8444079 0.04550423 -0.05752597 -0.37772518 -0.20297989
side 0.06063841 -0.37595966 0.33889574 -0.66664577 -0.24447839 0.22722206 0.11287543 -0.21742973 1.1047157 0.31604648 -0.23941764 -0.41751137 0.114997596 -0.027080923 0.07590782 -0.97083527 0.25719962 0.24427259 -0.075117275 -0.21426724 0.08283057 0.15275076 -0.061619774 0.07806733 0.5542414 -0.21281268 0.3875658 -0.21105713 -0.2027494 -0.3124513 -0.44735822 0.28912508 -0.18147728 -0.25612655 0.4136691 -0.07299786 -0.05997952 -0.14268708 0.3979772 -0.1003888 0.28317028 -0.17333141 0.023064615 0.31758925 -0.49853376 -0.1374867 0.06336066 -0.30663204 -0.16396925 -0.23223609 -0.37577105 0.072394244 0.1889609 -0.6101682 0.1479802 -0.55437875 -0.472785 0.5177773 0.534869 0.23030747 -0.1661268 0.2586774 -0.5113722 0.28356108 0.26117766 -0.17385219 -0.4773344 0.64351755 -0.026602793 -0.03824053 -0.098556206 0.19425234 0.5997962 -0.010486188 -0.21596856 -0.41063088 -0.5174652 -0.656191 0.775958 -0.37967283 -0.033343527 0.28709024 0.53593385 0.45356718 0.27876288 0.37664744 -0.51000565 0.13705477 0.1087975 -0.21795733 -0.42672336 0.03351092 0.1359828 -0.19292739 -0.6935605 -0.45857248 0.48308256 0.22297092 0.22417447 0.17365587
friend -0.6853396 -0.1987113 0.08164266 0.16097668 -0.15779752 0.22257844 -0.08609575 -0.09221003 0.39093527 -0.06905795 0.7106618 0.21508765 0.253925 -0.054463323 0.648018 0.13017894 -0.5382864 0.29207528 0.19363329 -0.3860154 -0.21815449 -0.37540033 0.35944718 -0.106137484 0.31624204 0.66288686 -0.039944977 -0.25329575 -0.0030278785 0.355287 0.17050508 0.9590005 0.12088785 0.05216676 -0.08062612 -0.16562894 0.43353033 -0.5233583 0.31187713 0.13848396 0.38262612 -0.05384533 0.36358503 0.1263099 0.22291997 0.4842114 -0.30728915 0.13950804 -0.21605223 0.09847029 -0.12833457 0.12341984 -0.49625298 -0.17555685 -0.5189101 -0.56169677 -0.21807328 -0.15998152 0.011991756 -0.183483 -0.21585825 0.02933582 -0.18520437 -0.32310137 0.2937626 -0.16333482 0.14727232 0.020246679 0.32913828 -0.031821184 0.31111363 -0.12358398 0.07798652 0.28138444 -0.5315586 0.2996496 -0.18311426 0.22210634 0.31977785 -0.24612793 -0.16147651 0.29969576 0.23426674 0.07192701 -0.0938594 0.19329268 0.5081365 0.53325033 -0.03789558 0.20593552 0.42080063 -0.4654808 0.26276186 -0.13592967 -0.25646028 -0.6607566 0.50605303 0.11477674 -0.020869518 0.049853526
someth 0.028595906 -0.5691537 -0.0015888833 -0.18046397 0.1411499 0.6288808 0.32505846 -0.12713218 0.23254238 -0.1442057 -0.086162105 0.29842696 0.04941061 -0.24857442 0.08117637 -0.68106157 0.18758243 0.4105862 0.42409167 -0.1717873 0.46244377 -0.09613091 0.43505833 0.10842211 0.2933495 0.3214533 -0.4437043 0.046465162 0.39792794 0.18556832 -0.12536237 -0.54980576 0.60017043 -0.2150038 0.5724007 0.48583567 0.21397482 -0.5425228 -0.05024076 0.55052966 -0.103599936 0.010892191 -0.58553237 -0.055518907 -0.09926194 0.19953848 0.08559138 -0.4864961 -0.42997932 0.24941841 -0.5220975 0.5986921 0.007077254 0.039074942 0.42300242 0.15033944 0.13267723 0.33389297 0.061168253 0.25775716 -0.46502826 -0.033808373 0.10384844 -0.1904245 -0.036067177 -0.15606816 -0.4260874 0.34561688 -0.16090187 -0.15541692 0.019734602 -0.44145143 0.09490022 0.1756962 -0.29972374 -0.095902495 0.120570004 0.18083294 -0.021880561 -0.26721263 0.20411325 -0.5032661 0.54148537 0.005608947 0.35263875 0.32090676 -0.03593089 0.22622357 0.024012068 0.15290388 0.15493907 -0.40717298 -0.0029223838 0.021652833 0.3053198 -0.34886467 -0.18766384 -0.102299295 -0.39785737 0.2613065
get -0.47246572 -0.19215125 -0.4797208 -0.35814768 0.23618369 0.16898865 0.44475895 0.11450463 0.0027779648 -0.2467149 -0.21594231 0.022545401 -0.6428924 -0.17515373 0.027135126 -0.18262246 -0.2777715 0.1021849 0.23518682 0.17202094 0.3120243 0.42662987 -0.05661113 -0.10502584 0.08964906 0.49919796 -0.008340812 -0.15881117 0.33249646 -0.32667983 0.11394709 -0.06998272 -0.06933792 -0.017656483 0.15654644 -0.4392421 -0.13209513 0.14437148 0.1591909 0.16348705 0.28663117 -0.5880458 -0.099779785 -0.39102557 -0.29971787 0.54017276 -0.63261527 0.007881472 -0.07834358 0.37500048 -0.21728005 0.45795396 0.16299683 -0.28112897 0.1875752 -0.7692424 -0.5585709 0.06821617 0.035487957 -0.16936973 0.27805224 -0.53351355 -0.22138125 0.47528964 0.34698597 0.12946326 -0.37140957 0.19194013 0.28404158 0.3401029 -0.2338642 0.16053519 0.13405825 -0.15738346 -0.5083795 0.17353001 -0.44583237 -0.17159967 0.09272995 -0.12144198 -0.043525543 -0.49936175 0.43253487 -0.07234443 -0.47771457 -0.027194833 -0.019893697 -0.081479445 -0.5077085 0.3895201 0.16397657 -0.0397803 -0.23326826 -0.09654961 -0.56953853 -0.029015474 -0.07662641 -0.20848662 -0.041561954 0.34629574
wow 0.5745687 -0.18763639 0.03437903 0.03771911 0.4581491 0.14671883 0.1668589 0.1785551 0.005272621 -0.31951576 0.23724882 -0.19991371 -0.18901128 -0.68594664 0.5910507 -0.4089681 0.36456478 -0.11016998 0.5398017 0.44476107 -0.17835145 0.4278994 0.40449807 -0.34101453 0.7488238 0.68994814 -0.42523253 0.6450518 -0.04870167 0.22742614 0.08515543 0.43184018 -0.76873994 0.14292002 -0.5685883 -0.44444028 0.45327175 0.34670287 0.3407575 0.58434397 -0.46812797 0.3640163 0.0867207 -0.31983942 0.22363868 0.4659278 0.8857677 -0.009182676 -0.6596556 -0.5123093 -0.17368126 0.04035495 0.22007445 -0.8427657 -0.27771857 -0.27299958 -0.45029175 0.40386692 1.0618467 -0.3307815 -0.18518096 0.18592434 0.24748726 0.86234194 -0.37610984 0.09580132 0.9310369 -0.002723 0.06435121 0.33672377 0.16274741 -0.12788622 0.21002889 1.1121 -0.2846833 0.6651056 0.0272734 0.092181124 0.5205961 -0.3377732 0.83262414 -0.43092394 -0.59026265 0.7581154 -0.14203763 0.44052625 -0.2890053 0.2941405 0.4182493 -0.24188294 0.015205994 -0.65136063 -0.3608013 0.2930532 -0.08556352 -0.38730294 0.70952976 0.12559702 0.67878455 0.16332842
fact 0.11870493 -0.2171117 -0.051093902 0.17455477 0.38344744 0.27526775 -0.47246182 -0.22051807 0.5995403 0.19101046 -0.5154937 -0.0015159119 -0.15357715 -0.11568936 -0.058316097 -0.44913518 -0.021179102 -0.15509255 0.8283114 -0.2918229 0.14796971 0.22345954 -0.035485096 0.23696072 0.27268112 -0.35723138 0.0012018295 0.14128686 0.3419156 -0.42763186 0.09939307 0.5232254 -0.19832897 -0.22219394 -0.22017708 0.08885924 0.3292625 -0.35761067 -0.22360685 0.14048345 0.07715415 -0.3886625 0.33039474 0.14188047 0.13204509 -0.30251428 -0.18764411 0.5231485 -0.06900758 -0.0062040966 -0.29725823 0.39843625 0.09864788 -0.35019597 -0.100592636 -0.48531044 0.3465048 0.30993947 0.097080804 -0.08277306 -0.2433488 -0.2037058 -0.33341408 0.004776162 0.091101214 -0.11956345 0.1252387 0.13974835 0.31303298 0.030787533 0.014876114 0.09989965 -0.84026605 0.33499587 -0.033409763 0.013064813 -0.5301291 0.29108095 0.038616333 0.5573406 0.4214279 0.13318151 0.33218512 0.19259998 0.21497138 -0.020617852 -0.0443398 0.8532762 0.10841264 -0.5814463 -0.58945525 0.6288899 -0.7497604 -0.36644277 -0.16986543 -0.2645532 0.15815727 0.15926273 0.68600696 0.04412344
corona -0.19241865 -0.24296871 0.14205573 0.44296467 0.05210094 0.19461584 0.03678147 0.604583 0.8452508 0.35725456 0.21993949 -1.0798438 -0.23407185 -0.4845302 0.50882655 0.08501198 0.25605208 0.16691779 0.63547224 0.4950925 -0.5053251 -0.13133897 -0.5645161 0.25771254 -0.49019396 -0.18917309 -0.75875103 0.26987123 -0.06508052 -0.05686199 -0.22427522 0.8640758 -0.3752164 -0.49648747 -0.1759281 -0.32334766 -0.3577535 -0.27093083 -0.681808 -0.2983103 0.3821613 0.10022428 0.57314336 -0.09300195 0.12603292 -0.024368428 -0.054264747 -0.9141187 0.5034563 -0.09035774 -0.40517136 0.18227598 -0.00042065323 -0.5025803 0.5642428 -0.11010241 0.51066333 -0.27392787 -0.4357353 -0.20921767 -0.0063344818 -0.97144485 0.03917181 0.4968583 -0.35533005 0.13774166 0.052205123 0.16499296 0.13489074 0.028136738 -0.5840576 -0.29341057 -0.33202946 0.69310844 -0.9990819 0.7556091 -0.5623818 0.15011796 0.04999458 -0.110078424 0.19843844 -0.5809529 0.74928313 -0.26283574 -0.17715131 0.771387 0.021996643 0.15839739 -0.3722865 -0.3576483 -0.31547946 0.31052133 0.31766915 0.23140046 0.18127131 -0.17830047 -0.29070827 0.43232897 0.5031921 -0.037425067
mam -0.03221531 0.12994592 0.10663937 -0.30625403 0.28882617 0.012962405 -0.6998809 -0.9053895 -0.07713826 -0.7825344 0.20418927 0.37393394 -0.32117236 -0.3937757 -0.23846817 -0.014806777 0.42724717 0.5404751 0.64170396 0.32030168 0.049480285 0.7646341 -1.2603005 -1.2281348 0.41744286 -0.33296576 -0.33292145 0.18140875 -0.049177375 -0.28562155 -0.6589523 0.55663955 -0.6433919 -0.1280562 0.12771653 -0.14889854 -0.13748975 0.17003225 -0.3402955 -0.6482876 0.51675695 0.46322754 -0.5492428 -0.121046856 -0.047362868 0.17343606 -0.35522172 -0.14904083 -0.9693707 0.1616754 0.04670113 0.15912716 0.10551495 -1.1556613 0.44011843 -0.81119365 0.45590538 -0.48530105 0.56766135 -0.2717032 -0.50751364 0.020279901 -0.32851613 -0.41769692 0.67473125 0.45617914 0.7518076 -0.23077495 0.4742027 -0.20136116 0.20166701 -0.5807544 0.117711134 0.43011275 -0.30082712 0.6766119 -0.06969502 0.14569774 -0.031624418 0.22360699 -0.61272246 -0.8390234 0.23319578 -0.64329886 -0.41689152 0.5464375 0.5525263 -0.71064776 -0.19710076 -0.46044686 0.60373944 0.21135278 -0.28632694 0.1347545 -0.071606345 0.114047974 0.17634265 -1.4032456 0.24643727 0.89375776
rest 0.45594814 -0.12370739 0.20891337 0.017782707 0.260696 -0.32238966 0.17398685 0.33532643 0.37062773 -0.090992354 0.3375869 0.6303241 0.21720152 0.031895194 0.39501154 -0.044917632 -0.0844861 0.34201458 -0.14089945 -0.1558127 -0.52670556 -0.64069474 0.5920174 0.11530842 -0.0628712 -0.074906334 0.88901913 -0.05462032 -0.37808868 0.020740911 0.839374 0.8960112 0.31027794 -0.39850104 0.7304272 0.08185614 0.08827886 -0.03846781 -0.15470813 0.28013206 -0.09221528 -0.36126453 -0.25878328 0.62238586 0.2120701 -0.24716721 -0.37081888 -0.85214585 -0.22159065 -0.39719173 0.27885124 0.051945623 -0.36690992 -0.6978152 0.4833767 -0.41960785 -0.488311 0.41156143 0.66068906 0.24219349 -0.36927888 -0.78381604 0.32328978 -0.05110062 0.5628104 0.75840336 -0.21209411 -0.49767414 0.020525156 0.5102606 -0.20613748 0.7065211 0.777464 0.86937183 -0.2965295 0.6425356 0.044893283 0.56983805 0.3564636 0.8379652 0.05375123 0.117760934 -0.04401641 -0.059020687 -0.089008346 0.27538332 0.032391284 0.8157225 0.41291875 -1.0363433 0.20825265 -0.1085551 0.20432201 -0.35280713 -0.23696217 -0.47255766 0.424986 -0.28113994 0.04445395 0.3373951
bodi -0.21002436 -0.41323787 0.5768674 0.28634813 -0.1463131 -0.1825176 0.3771577 0.12339249 0.9427477 0.26142132 0.04645789 -0.2465042 0.51997954 -0.61945176 0.14837062 -0.35107273 0.24386254 0.10243207 0.26329 -0.45939946 0.108724974 0.771078 0.53419197 -0.69648063 -0.62756234 -0.13575667 0.60736555 -0.0006446953 0.14873718 -0.13994543 0.18004537 0.13694583 -0.07760148 -0.68802994 -0.26773134 -0.42009944 -0.33887932 -0.27829686 0.47474846 -0.12182831 -0.055296652 -0.04015083 -0.12486296 -0.4405275 0.3054342 0.5056588 -0.012756382 0.33565387 0.08629969 0.6259121 -0.18215778 0.44612515 0.12211006 -0.21428064 0.1850739 -0.28681013 0.039915748 0.136564 0.058031138 -0.06034967 -0.123576544 -0.13778292 -0.020119028 -0.015601743 0.58162135 0.0052531767 -0.73996675 -0.50661314 -0.20932364 0.091353245 -0.16779697 -0.09550484 0.5258295 -0.05167102 -0.45110795 0.056697756 0.008590894 0.1642318 -0.04764736 -0.16612753 0.09168552 -0.1297333 -0.07863501 0.5045147 -0.17306001 0.20599413 0.236232 -0.52865547 -0.4223915 -0.25855318 -0.09969119 0.30621728 -0.079915464 -0.18445836 -0.1886005 -0.42529383 -0.24641217 -0.7721817 0.13179642 0.06468152
countri 0.16309561 -0.4724644 -0.37748578 0.46673194 0.017386975 -0.11217658 0.18715128 0.16273364 -0.2687716 -0.07966348 0.16885492 0.4814522 -0.78523904 -0.26644936 0.5181114 -0.26590863 -0.024545636 0.36540484 0.15605663 0.1981715 -0.3213611 0.6474159 -0.053871024 0.77598274 -0.2354226 0.10418771 0.04412745 -0.4343188 0.35758916 0.5027541 -0.5453271 0.5414672 -0.14900026 -0.74300116 -0.23394467 0.287313 0.01135438 0.1750367 0.13507575 0.11884149 0.41571823 0.09081428 -0.6885272 0.56685084 -0.24597172 0.14130972 -0.19790131 -0.0387012 -0.34043583 -0.37913096 0.16627502 -0.07141052 -0.55891615 -0.11380724 0.7300342 -0.59277064 0.22069387 -0.22261192 -0.20094696 0.41400763 -0.7353362 -0.52055895 -0.052632913 0.30358082 0.46068412 0.4782413 -0.071997516 -0.33106032 0.32243633 -0.97056335 0.34236908 0.1862867 0.12862015 0.050424486 -0.5310387 0.15901169 0.6954952 -0.4968768 -0.45684943 0.6607809 0.23062438 0.5922504 -0.0756547 0.109997176 0.29518646 0.10172258 0.23753701 0.7404769 0.34383965 -0.22757265 0.11079848 0.040852405 -0.035435364 -0.4013647 -0.15725797 -0.7146284 0.25555086 0.28385514 0.19805013 0.34469125
dose 0.09329205 -0.47946873 0.46893063 -0.27223274 0.2543791 0.690586 -0.06642829 -0.7867512 0.5616083 -0.15712488 0.07624264 0.20553178 -0.66045403 -0.6079734 -0.016123034 -0.9041291 0.63160557 1.1371398 0.41064528 0.1320028 0.08918582 0.40151024 0.27268925 -0.21479514 -0.7066209 0.097595684 -0.16314743 0.590537 0.016768795 -0.6317117 0.061905887 0.3292609 -0.44127113 0.14699432 0.32228136 0.110322505 0.29819068 -0.01577874 0.8579432 -0.122186214 0.050205816 0.29954726 0.34704864 0.019477393 0.5483853 0.12819284 -0.25520507 -0.09405451 -0.02462372 -0.49130905 -0.1980746 0.2554531 -0.6852329 0.51274973 0.051473007 0.1157511 -0.0064127087 0.19900545 -0.115981266 -0.16597828 -0.5906324 -0.4809439 -0.10624672 0.19525796 0.97765434 -0.34427574 0.36186248 -0.25435546 0.06863866 -0.27725455 0.54986984 -0.37092474 0.53494775 -0.38430125 -0.017075082 0.18421848 0.24578048 0.26217103 -0.088891335 -0.10685519 -0.36295107 0.6852742 0.43771273 0.15541339 0.47060513 0.5448098 -0.62359655 -0.17914689 0.34184125 0.11430674 -0.61808497 -0.16446327 -0.6204818 0.02152263 -0.55732125 -0.46676576 -0.56953984 0.092267334 0.82014805 0.5147276
love -0.2669289 0.27236 -0.13455041 -0.5469465 0.03728356 -0.5254062 -0.7307317 0.20762773 -0.5230304 -0.5102221 -0.031723402 -0.09960039 0.12623669 -0.26740283 1.0415577 -0.12652452 -0.1766793 -0.18718497 0.52993166 0.3988008 0.09227657 0.35918593 -0.21101394 -0.21916772 0.45738953 -0.24679355 0.7526786 0.4929388 0.584282 -0.59336525 0.07195826 -0.06712384 -0.3384265 0.8886606 0.11713373 1.0118982 0.4644075 -0.15760593 -0.06661905 -0.107949615 -0.12982602 -0.30675638 -0.2518704 -0.5929254 -0.1929678 0.27902934 0.44768217 -0.32576913 -0.521569 0.2490796 0.41655305 0.22805923 -0.056840695 -0.90906143 0.23865353 0.018818082 0.06629016 0.056959573 0.16552852 -0.5079101 -0.21157768 0.019655986 -0.27008852 -0.019804519 0.25203115 0.6976035 0.026429096 -0.062522605 0.037136097 -0.15192671 0.48912188 0.27854946 -0.06266295 0.79392594 -0.32923377 0.22440712 -0.34521952 0.3086193 -0.049398523 -0.34795487 0.09436428 -0.20370916 0.04280339 0.9421305 0.56152403 0.22012456 -0.07082551 -0.23770875 0.016241403 0.3700703 0.256931 -0.48792386 -0.06542968 -0.64514065 0.34874073 -0.38536334 0.2744287 -0.84353 -0.41927293 0.54867804
part 0.26577437 -0.59541595 0.3183932 -0.5954441 0.3020107 0.8706938 -0.26465443 0.13276044 0.91365784 -1.0550172 0.582335 0.15549035 -0.02483741 0.4396368 0.11378858 0.45349956 -0.025939176 -0.040437687 0.6838001 0.051927608 0.51835823 0.08509378 0.029192584 0.10212659 0.23910777 -0.21548359 0.44974297 -0.027013607 -0.20271584 -0.29681426 0.62858385 -0.1824746 -0.23362097 0.48498824 -0.20455658 -0.5207979 0.3050065 -0.642129 -0.19741604 0.29157522 -0.009402796 0.44642693 -0.36222357 -0.14335373 0.09981798 -0.19188945 -0.016799668 -0.2829278 -0.1913886 0.05728782 -0.20266654 1.2048401 0.14936572 0.015003262 0.41690204 -0.06178236 0.3033252 0.41808358 -0.10210789 0.022977654 -0.22296156 0.24384962 0.33910352 -0.40285268 -0.090273514 0.57181805 -0.20443875 0.13384877 -0.1528374 0.64288664 -0.45363382 0.41312796 -0.072850354 -0.07176929 -0.20688899 0.3299523 -0.06977794 0.8493042 0.14061162 0.19889405 0.0407891 0.47036707 0.33325282 0.011328752 -0.15415908 -0.27415055 -0.3379423 0.0024244208 -0.24604467 0.7860447 -0.3058596 0.075577356 -0.9610918 -0.38536936 0.0015387451 -0.1180674 0.37611723 0.12431749 -0.20112522 0.9534459
month 0.16644792 0.1966199 0.16659805 -0.16685267 0.003242421 0.3521298 0.44135287 0.1698343 0.01646506 0.26695496 -0.36071923 0.16720793 -0.019981775 -0.5898448 0.42154247 -0.39868957 0.61072487 0.8351261 0.1331693 -0.17814624 -0.28586242 -0.291601 0.67754865 0.14903082 -0.4223844 -0.16554804 0.06482427 0.67422384 0.37993196 0.11749352 0.058301326 -0.36809477 0.08186061 0.11191579 0.117278986 -0.03509478 0.06863837 -0.23942336 0.179022 -0.36571568 0.2815983 -0.47831228 0.08452875 0.051724162 -0.34870985 0.272123 -0.36913827 -0.09720221 -0.43082425 0.03119798 0.17595156 0.84975195 0.5901695 -0.12840654 0.34995633 0.25535348 -0.20210472 0.14782278 -0.12590876 0.044165667 -1.0305628 -0.16339979 -0.19120021 -0.17937203 0.13593437 0.25894383 0.15585327 0.066945404 0.50359565 -0.11161668 -0.46122906 -0.077686496 0.49819434 -0.10010128 -0.7155234 0.018780956 0.09366527 -0.13060127 -0.3852735 0.630554 -0.022712324 -0.35809872 -0.10171889 -0.544015 0.41638008 -0.046957415 -0.12953994 -0.18330193 -0.3083141 0.048812333 0.1979327 -0.045724005 -0.053738963 0.37030149 -0.6602751 -0.8171789 -0.58601403 -0.15500468 0.115866184 0.14104716
stay 0.18565378 0.3252936 -0.26205823 0.21779849 0.59958357 0.16093168 0.23687442 0.040254164 0.21270972 0.51833004 0.6404879 -0.6599097 0.6071116 0.45349953 0.75848585 0.3273893 0.68219703 0.12539369 0.59102887 0.10620047 0.045479715 -0.43720663 -0.46699136 -0.060593933 0.42101127 0.6844263 0.59883946 -0.20373835 0.18826838 0.1378672 0.077394485 0.17715561 -0.27452177 0.167669 -0.31350115 0.14169273 0.6876889 0.81828046 0.5457736 -0.01779518 -0.18043703 -0.6864414 -0.2550167 0.43273285 1.0519803 -0.033170152 -0.01937007 -0.32885063 -0.41858473 0.07328539 0.018289924 0.41778782 0.46762943 -0.3568771 0.07399598 -0.5639808 -0.26734978 -0.64532644 -0.30752307 -0.51092786 -0.25955543 -0.83392864 0.20728138 -0.35556117 0.015424644 0.22164527 0.13365889 0.06805606 0.61453557 0.24207288 0.26466632 -0.2408819 0.27880585 0.20536439 -0.6312173 0.53199595 -0.23852204 -0.34022635 -0.08509486 0.149507 0.15663593 0.24523333 0.124831535 0.3259773 -0.008612643 0.22615463 -0.17109834 0.18486205 -0.043374628 -0.604754 0.42196926 -0.14637005 -0.033907756 -0.1875287 0.080388784 -0.7793643 0.30466232 -0.31809303 -0.09959827 -0.41108865
peac 0.79701084 -0.91452986 -0.2144931 0.3719896 -0.58351105 -0.49733207 -0.33386055 0.01038576 0.060647186 -0.6740401 0.46370474 0.48720762 0.2609513 -0.6459138 0.9138401 0.046700064 -0.25597486 0.10018566 0.8744671 -0.3470896 0.076739684 -0.26657045 0.18124758 -0.7472222 0.5588013 0.48335636 0.27118498 0.3047982 -0.53714633 0.464568 0.249179 0.40258387 -0.67231655 0.004993193 0.22930422 0.26696673 0.019576885 -0.24074423 -0.070723884 0.8714424 0.13062316 -0.14302842 -0.6587892 -0.4250111 -0.33720312 0.2514339 -0.17352161 -0.5737034 -0.1894671 -0.30144554 -0.2172997 0.8050634 -0.47173697 -1.515311 0.26758966 -0.17456573 -1.0952119 0.22121064 0.479913 0.19681697 0.24283038 -0.8117866 0.5484565 0.38094825 1.2448772 0.707704 -0.30815816 0.055909924 1.0139554 -0.008227187 0.12573233 -0.21089123 0.3062743 0.3800954 -0.67840415 0.8230438 -0.31839755 -0.3681981 -0.109645754 -0.43251827 -0.45309377 0.4830458 -0.38477936 0.12876037 0.4720805 0.043126915 -0.5876537 -0.0031359761 0.54613006 -0.85086703 0.1365987 0.46944597 0.10259653 -0.8050686 -0.13737468 -0.7233806 0.96881324 -0.24343078 -0.64211124 -0.31979108
inform 0.3872305 -0.6844997 -0.21471699 0.428968 -0.11232537 0.6689427 -0.40630376 -0.19672413 1.0111992 -0.46567816 -0.3029188 -0.30785072 -0.5412656 0.11779897 0.9352252 -0.13862927 -0.11642927 -0.049138367 0.4461362 0.41879886 -0.4693036 -0.12652932 -0.323989 -0.27449554 -0.33473212 0.0062043834 0.2031029 -0.29095381 0.1943886 -0.13229959 0.22310853 0.5203001 -0.39935085 0.2984413 0.67630315 0.18605664 0.0971278 0.44813517 0.42397425 0.07623155 0.34550467 0.004115787 -0.5162477 -0.03918146 0.5898268 0.5827348 1.1946461 -0.7021473 0.08140723 -0.06618515 -0.6574495 0.169656 0.15035531 0.050274458 0.3579655 0.3310566 -0.5125865 -0.40852338 0.5532458 -0.111102626 -0.6132758 -0.312354 -0.07795798 0.20422716 0.43046227 0.7597578 0.9240792 -0.8332178 0.09368696 0.2563348 0.09146021 0.40024936 0.2885713 0.03623129 0.1451156 -0.2631091 0.018178275 -0.44230956 0.20157607 -0.6084724 -0.28591934 -0.17987497 -0.17414556 0.42317027 -0.34643504 -0.05416635 1.0674291 0.32064632 0.7927395 -0.21489817 -0.7324132 0.056158263 -0.30727857 0.1046378 -1.1529267 -0.5106354 0.101959825 -0.72239894 -0.2212085 -0.080882706
bed 0.065352306 0.023755439 0.16048466 0.13757737 -0.63994014 0.72405505 0.66942644 -0.19404203 -0.7318774 0.056147497 -0.1487282 -0.6924747 0.5243707 -0.47181284 -0.04220278 -0.30574292 0.19627722 -0.14273964 0.6904725 -0.06261841 -0.2415174 0.3468461 0.45026997 0.37360057 -0.04806685 0.23570661 -0.26289535 0.6791361 0.27701375 -0.21114184 -0.24694417 0.21516478 -0.22731948 0.28230983 -0.3050374 -0.36856416 -0.84448063 -0.6042441 0.079302795 0.51106834 -0.30019516 -0.24521668 0.25119883 0.4865054 0.4748623 0.039814517 0.32004884 -0.20970592 -0.08223576 0.30576724 -0.14216171 0.3557371 -0.20339449 -0.8466691 0.5672251 -0.16615938 -0.11286153 0.5889414 0.113096066 0.77643275 0.5442899 -0.74064004 0.27079225 0.20387419 -0.19768763 0.16583103 -0.16008128 1.3497944 0.699547 -0.15882412 0.024567455 -0.06109845 0.4093372 -0.22446194 -0.23551254 0.551392 0.08055969 -0.004738735 0.456646 -0.43137175 0.021722505 -0.118653744 0.48608837 -0.25433072 0.76336324 0.05819584 0.12648015 0.4182067 0.32018054 -0.052967478 0.16392542 -0.06449017 0.36170685 0.14094827 -0.49897346 0.032239005 0.4618703 -0.79933184 0.023126097 0.07435993
omg -0.5652532 -0.36750612 0.6520789 -0.043160934 -0.07516086 0.040208578 -0.44374266 -0.30788827 0.17305443 0.2346397 0.3771256 -0.29336 0.32608745 -0.36941227 0.32778808 0.78186756 -0.26751044 -0.38763282 0.14124785 0.953499 -0.0041644084 0.1659474 0.50353205 -0.31188697 0.6749713 0.42104277 0.27487543 0.47590846 0.3306437 -0.6226723 -0.42107642 0.1699629 -0.4322735 0.008689771 -0.15362312 -0.67650425 -0.95124227 0.108532086 0.82215744 0.8424503 0.14833649 -0.20514484 -0.32956874 0.2901336 0.5116871 -0.056502413 -0.09102935 0.1816759 0.08462875 0.49547565 0.11429039 0.6106959 -0.32723385 -0.48675564 0.06802943 0.24701864 0.18350329 -0.18909669 0.19503544 0.2493323 -0.09902733 0.003157638 0.32126945 0.4121521 -0.29583192 0.6223973 -0.7910693 0.6454832 0.19050317 -0.06495452 -0.09725198 0.01586477 0.28353477 0.41934827 -0.8680288 0.8003171 -0.7487882 0.2864692 -0.60208035 0.01268327 -0.8199111 -0.5495322 0.26650417 0.20292833 -0.11818945 -0.37828478 -0.539932 0.59455234 0.24281229 -0.2945855 0.35649443 -0.5229995 0.18337049 -0.3769661 -0.1905502 0.14005487 -0.038945735 -0.23474427 -0.013005872 0.51774275
money 0.2108185 -0.31066185 -0.14803098 0.0692262 -0.17240676 0.019979622 0.23489583 -0.01103621 -0.23895025 -0.12784153 -0.70087945 -0.053418547 -0.28996798 -0.31293738 0.17212951 -0.7740237 0.124768786 0.3636522 1.1312759 -0.1014758 -0.30095813 -0.23251209 -0.06770258 -0.12403169 -0.11530307 0.60451573 -0.011911368 -0.2617113 0.112767726 0.5626824 -0.09711104 0.08388817 0.2920205 0.20665383 0.21398273 -0.4769103 -0.49408564 -0.39154682 0.07594587 0.92248106 0.5957353 -0.2787731 0.10552939 -0.29329225 0.0752968 0.15851203 -0.358239 0.097920574 -0.08470994 0.53430855 -0.016304072 0.13717282 -0.13764924 -0.42685872 0.054467488 -0.5619076 -0.95205194 -0.84203905 0.5553597 -0.15964352 0.43987453 0.69521797 0.20467038 0.243117 0.39120275 0.32561246 -0.35804838 -0.35839367 -0.41224924 -0.74571794 0.38683984 0.48743656 0.5042616 0.52267635 0.19826017 0.95584005 0.14941908 0.1320206 -0.48211905 0.45833868 0.15832455 0.8263959 0.43609196 -0.49102762 0.15651229 0.30813342 -0.3949315 0.3034459 0.6337071 -0.65288776 -0.54355603 0.33806816 -0.26981175 -0.51848173 0.78410983 -0.52671283 -0.448693 -0.3296509 0.15282086 -0.081634924
problem 0.91893935 0.2574345 -0.39601174 0.35694015 -0.09428659 0.04270999 0.06347416 0.81237453 0.88179547 -0.5748571 -0.2399648 -0.16684596 0.18078408 0.17170466 0.18291688 -0.58388186 0.11628268 0.5702582 0.45123512 -0.39238927 -0.3970513 0.39806268 0.24752687 -0.06495102 -0.16339459 0.26366237 0.34634563 -0.24084884 -0.40426347 0.1129119 -0.37937227 -0.100189544 -0.63751096 -0.121153526 0.1865684 -0.16128838 -0.32503107 -0.23701638 0.76915014 0.29839253 0.006732737 -0.08504019 -0.08154932 0.41207352 0.12536687 0.3570054 -0.23544984 0.0030611977 -0.37239614 0.09458879 -0.15553105 0.77105886 0.13378482 -0.15141524 0.73903185 0.4711084 -0.14580292 -0.28533873 -0.6138836 0.2725632 -0.40489462 -0.2637137 -0.1881724 -0.07176455 0.2892779 0.2533077 -0.24960224 0.36892235 -0.2611559 -0.09989817 -0.31332433 0.07432831 0.34858373 0.31553426 -0.16949877 0.30565137 0.19599125 0.31092826 0.40446255 0.20495526 0.26399398 -0.02911436 0.4090494 0.13086188 -0.15449005 -0.031140272 0.14852986 0.3115901 -0.07386632 -0.021149829 0.27299362 0.028496144 0.2747067 -0.43279147 0.62382036 0.11681639 -0.0015455375 0.5634136 -0.015274181 -0.37374064
govern -0.21409057 -0.061079115 -0.39946115 0.32319683 0.010218621 -0.022662845 -0.44284898 0.2108405 0.10083241 -0.15238053 -0.37439242 0.13869828 -0.37337366 -0.18098174 -0.69931036 -0.61898303 0.14928633 0.262555 0.48117003 0.44225022 -0.5649417 -0.21361189 0.8491668 0.47185564 -0.46068692 0.46944258 -0.0146202445 -0.5198624 0.646835 -0.06983836 -0.5030063 -0.3250441 -0.8390655 -0.23410556 -0.07016981 0.32480145 0.41390133 0.16895878 -0.17990293 0.46880937 -0.15908425 0.2771412 -0.32482302 0.2903271 0.10936164 0.59691596 0.30421478 0.058198426 -0.35818264 0.2871696 -0.5638194 0.608641 0.11319704 -0.17369781 -0.05672775 -0.77482384 -0.24734594 0.10175425 0.0014603118 0.27184638 -0.12832423 0.031040696 0.23697437 -0.013212053 0.1153362 -0.3631799 -0.18704861 -0.13564923 0.44317383 -0.60900617 -0.065775886 0.23683426 0.3485782 0.015551385 -0.57329255 0.8403017 0.010016201 -0.111360945 0.12710743 0.0652755 -0.24329588 0.95466036 0.23336807 0.0489034 -0.00572105 0.16695808 0.38390028 0.032782104 0.9663175 -0.14176989 0.37453502 0.932847 -0.28535032 -0.5523361 -0.69777787 -0.28904513 0.06209888 0.39173138 -0.3512032 -0.07752241
shoe 0.3995456 0.087151565 -0.16188483 0.09684967 0.800946 0.061842915 -0.8521162 -1.1538739 0.24659076 -0.65760624 -0.24656925 -0.2833065 -0.47912464 -0.7490194 0.49327853 -0.13176559 0.26850197 -0.40834484 0.7630012 0.10896403 0.0036051483 -0.08921948 -0.1201877 -0.3256412 -0.08205113 -0.23573393 -0.36287555 -0.3624114 0.17197523 -0.4016789 -0.20646153 1.1250011 -0.50621754 0.5180693 0.3475396 0.2759399 0.69841975 -0.27015322 0.028367884 -0.7914695 0.118847795 0.20719367 -0.32493642 0.6154576 -0.2539649 0.51977795 -0.6471747 0.14380419 0.3066958 0.67397916 -0.5094804 -0.37987474 0.08847866 -0.2994042 0.0042643477 -0.12450134 -0.49985087 0.3894081 -0.20390914 0.6705834 -0.08662939 -0.14932907 -0.31629562 0.16802648 -0.04214771 -0.19394603 -0.84534335 -1.160155 0.072861664 0.5148776 0.29760462 0.09770502 0.38098064 0.53948766 -0.6687016 0.7353733 -0.16921014 0.24898382 -0.2787063 -0.48685575 -0.35450286 0.66555756 0.006646846 -0.28175423 -0.504586 -0.038420614 -0.2809996 0.96511537 -0.035143554 -0.0531443 -0.35769394 -0.5104556 -0.097990945 -0.07529269 0.7517482 -0.7164211 -0.26667434 -0.8390885 -0.6043832 0.3142278
reaction -0.24005036 -0.08700392 0.3880974 -0.057015605 -0.14139766 0.639415 0.45774162 -0.18389365 0.02182748 -0.26658642 -0.0025817447 -0.48223546 0.015046477 -0.28914917 0.06658434 -0.006866719 0.4005991 -0.055308692 0.55654716 0.3765337 0.096821696 0.41991824 -0.15714711 0.0028965245 -0.31565958 -0.3356503 0.8872016 0.42842662 0.34149823 -1.062424 -0.21892379 0.74096 0.3726311 -0.030925969 -0.3697373 0.15130848 -0.2313164 -0.50697076 -0.09217709 -0.18608737 0.1724327 -0.20278908 -0.08621002 0.27398783 -0.010335225 0.20931275 -0.5604308 0.027357033 0.060973916 -0.06623209 0.083080016 -0.19336766 0.21142545 -0.5058978 -0.58674496 -0.19678928 -0.10866944 0.47003832 0.44782585 0.5695094 -0.7075196 0.5550744 -0.46907943 -1.1038895 -0.4984235 -0.3423754 0.2157048 -0.21406464 -0.6973622 0.947477 0.121363506 0.14206332 0.7400551 -0.17721877 0.12756428 0.5861949 -0.6536958 0.09965351 -0.19204387 0.47866127 -0.035223883 -0.48739436 0.08829047 0.20714009 0.60578096 0.5197319 -0.13494386 0.43910736 -0.015817316 0.36729792 -0.032164007 0.4938629 -0.42232305 -0.6114559 -0.38652584 -0.7447454 -0.3205163 -0.026916679 -0.64995617 -0.050010506
today 0.07465323 0.20271784 0.3602541 -0.1044767 0.8475173 -0.06839859 0.12974022 -0.61555374 0.33133206 -0.3724259 -0.060187206 0.4416649 0.27046406 -0.32783473 0.10687879 -0.088804096 -0.19970374 0.00930599 0.46189833 0.72394186 0.111225635 0.6327966 0.36487943 -0.090538196 0.053069852 0.103860356 -0.08211677 0.22571683 0.057960145 -0.3182035 -0.33507127 -0.17643301 -0.23197488 -0.01790979 0.05494305 0.3696254 -0.00493954 -0.1452096 0.012389176 -0.1778323 -0.39738712 -0.14562851 -0.026812147 0.41677174 -0.39040124 -0.104305275 -0.2736671 -0.34309113 -0.1351168 -0.097549245 -0.5186027 -0.2395919 -0.27176487 0.2069544 -0.20863762 0.23342997 0.17080471 -0.3118042 0.7762964 0.24797492 -0.65147287 -0.22996499 0.15473175 0.41476676 -0.049111683 0.6450841 -0.2475652 -0.093028165 -0.23297682 0.33627906 0.28751302 0.20844766 0.3999518 -0.33548784 -0.7524758 -0.14859007 0.2217484 0.9378128 0.7554578 0.19982357 -0.61390716 -0.38446206 -0.07053065 -0.2845834 -0.40154475 0.59573895 -0.6061579 -0.06124655 -0.22066136 -1.3046556 0.18355171 0.40602097 -0.38028753 -0.166787 0.011321798 -0.777786 0.44564795 0.25897527 -0.18418582 0.46087828
person 0.16534755 0.43557492 -0.12583947 -0.15825115 0.16381001 -0.73574346 -0.016767949 -0.27721336 -0.06659389 -0.1668621 -0.05826094 -0.32255858 0.43764797 -0.049479444 0.41786408 -0.045557037 0.047031302 0.16260706 -0.017175395 -0.5912269 -0.5552199 0.5428936 -0.23167007 -0.07973268 0.5847803 -0.16072838 -0.16104788 0.016480044 0.7895079 -0.21494335 0.15397352 0.45307115 -0.43319714 0.13701311 0.08659053 0.4379773 -0.010716236 -0.5080456 0.061154824 0.11612428 -0.48853347 0.24870187 0.59242386 0.36367783 0.12582566 0.4831068 0.14426975 0.12604879 0.068922825 -0.41485083 0.45337135 0.6868986 -0.028468173 -0.6849017 0.97460747 0.18424669 -0.37891984 0.12980735 0.45246896 -0.04052803 -0.65589505 0.12730621 -0.17324685 0.16339555 -0.24891222 0.022653138 -0.31201515 0.2041709 -0.44376022 -0.17688018 -0.061925266 -0.08996832 0.13124019 -0.09230448 -0.27193397 0.1247044 -0.2584931 0.08420646 -0.14712112 -0.1557846 0.32072258 0.28333044 0.68796784 -0.027878797 -0.2710718 0.07378411 0.2342784 -0.34860745 0.18277907 0.33681884 -0.70185524 0.12184394 -0.30498698 0.15991186 0.4201098 -0.46347833 0.041498102 0.015319384 0.20465961 0.90530735
hospit 0.16506568 -0.08722018 0.6805645 -0.1668553 -0.044180777 0.80616975 1.0266004 -0.0010366089 -0.37811825 -0.30356148 0.22959629 0.3146543 0.5816083 -0.016533317 0.12485474 -0.0280468 0.20758885 -0.36788812 1.1412569 -0.14399725 -0.06441999 0.16163346 -0.39741877 0.40117377 -0.0007048404 0.3256204 -0.33960268 0.30003166 -0.30638337 0.1923096 -0.17672259 0.39115766 -0.52409756 -0.028518852 -0.7977768 0.41078734 -0.07746121 -0.73714757 0.07217491 -0.19712082 -0.3462185 -0.03165864 0.11673891 0.29419318 0.6753806 0.35141197 0.31010145 0.21959288 0.04307066 0.3895802 0.4911318 0.022368107 -0.13681163 -0.08207648 -0.21528153 -0.13674182 -0.63863486 0.031884298 -0.092935786 0.7722835 0.04597023 -0.15529333 -0.16104485 -0.064616874 0.9582181 -0.27212062 -0.16570108 -0.089787975 0.55681604 -0.0068237367 -0.5255217 -0.28520018 0.5353448 0.023482943 -0.45649517 -0.031163802 -0.479743 0.77655405 -0.43960214 0.21547908 0.112349436 -0.47373083 -0.061993416 0.30655187 0.17974328 0.23715435 -0.021363823 -0.040046204 0.16187975 -0.43782276 -0.22399157 0.18711406 -0.3708737 -0.057847176 0.12837793 -0.04866623 -0.6964133 -0.13033456 0.022144528 0.73868686
reason -0.035923246 -0.26292345 0.30999264 0.08444426 0.081195906 0.27650428 0.5967895 0.030148085 -0.15830928 0.05865458 0.29177493 0.43983853 0.058671586 0.88045263 -0.10729489 -0.5870196 -0.327882 0.30315354 0.5724403 0.15093026 -0.14676589 0.27043065 0.0020183027 0.17291276 0.017286837 0.49780753 0.10882073 -0.069027804 0.26652598 0.06487358 0.08151969 -0.45567715 -0.08794858 0.21554166 0.102809824 -0.38165572 -0.28172922 -0.30060202 0.32389903 0.35440233 -0.20446321 -0.91479313 -0.0094204135 0.24852605 -0.068847805 0.5232226 0.42153198 -0.13517617 0.317706 -0.14390521 -0.22777995 0.34549215 0.008653894 0.022490948 0.7033268 -0.47787067 0.14344344 -0.018074336 0.09093367 0.07399457 -0.65121967 -0.28983158 -0.7369666 -0.26878363 -0.0037485538 -0.089694984 -0.45160457 0.426279 0.123441346 -0.32327896 -0.10495164 0.06312214 -0.19207485 0.34965527 0.011001251 0.0046997573 -0.029726261 -0.16104254 -0.4400167 0.006303121 -0.4728903 -0.43663836 0.09619602 -1.0065387 -0.3338747 0.76491535 -0.44991928 -0.11400124 -0.07050696 -0.06643427 0.04402013 0.38363814 -0.283147 -0.5389068 -0.24543115 -0.32946113 0.32322386 0.43341684 -0.020095393 -0.30331716
orang -0.1368546 -0.26880112 -0.2832881 0.4068678 -0.6790655 0.68647414 0.2341762 0.20318338 0.34183922 -0.45967597 -0.15907824 -0.23714016 0.5727992 0.09384307 0.45226386 -0.16323097 1.1077985 -0.4298729 0.29784724 0.854572 0.048554678 -0.48810732 0.6671567 0.36510217 -0.2804357 0.19684279 -0.44586214 -0.39602807 0.9288231 0.016866533 0.14642392 0.44331187 -0.8200161 -0.7804292 0.28295913 -0.19611554 -0.28272882 -0.43070662 0.96390843 0.021634461 -0.002555005 -0.09192673 0.78892976 0.5168785 0.30109304 0.30505532 -0.5549402 0.6508055 0.13970093 0.72421134 -0.34091854 0.8781942 -0.38113883 -0.65541375 0.06605581 -0.5533933 0.6013639 -0.113179505 0.3008421 -0.9751542 -0.34319055 -0.68993556 0.38080028 0.055377893 -0.16948847 1.3764278 0.3092961 0.16544881 -0.5954799 0.3218499 -0.14097558 -0.120000675 -0.6464632 0.40233666 -1.0487345 0.71284944 -0.99032086 -0.68380564 -0.22409084 -0.14832436 -0.22997023 -0.39876994 0.45705497 0.33961698 -0.076011546 0.39651054 -0.7539926 0.40845606 0.66700315 0.30243018 0.24844716 0.26370454 0.9094227 0.033410113 -0.8128123 -0.819574 -0.068314075 -0.41641444 0.2846292 0.7836725
bro -0.55721706 -0.51752675 -0.91283613 0.027816437 0.35498148 0.47444323 0.25785914 -0.10991769 0.088901356 -0.10034473 -0.14057355 0.55084383 0.18516831 -1.4526752 0.37425482 0.61199284 0.88118243 0.3049179 0.49040586 1.0836393 -0.1251017 -0.50162 0.31395555 -0.40762246 0.24077271 0.88592106 0.13874242 -0.04724234 -0.3460025 0.13958605 0.20329843 0.3413353 0.00012636292 0.19077502 0.3210543 0.99016654 0.063693464 -0.06327606 0.33685967 0.10333274 -0.86004543 0.36447287 -0.21153264 0.22790538 -0.03834629 -0.39201397 0.15512982 0.36257926 -0.2937049 -0.07055215 0.13624763 0.62864363 -0.47951534 -0.8127107 -0.47848287 0.42297027 0.03455087 0.36314216 0.52056366 -0.055130873 -0.4741191 0.27837425 -0.56717986 0.060529716 0.4048095 0.01819127 -0.2601241 -0.24883683 -0.17209756 -0.62754834 -0.5476106 0.33345708 0.47606856 0.09903305 0.43391305 -0.00014578187 -0.9281701 -0.21257502 0.058368176 0.40671933 -0.4624975 -0.32836398 -0.22542375 0.2607794 0.3978264 -0.21645921 0.007382143 -0.2866295 -0.13853428 -0.6582748 0.3960923 -0.26377913 -0.017307283 -0.11374062 0.14865509 -0.6190364 0.30853495 -0.14858776 -0.30632025 -0.36730015
world 0.16659203 -0.030702328 -0.66660106 0.8052287 -0.7313107 -0.032469757 -0.27218178 0.9372427 -0.029496895 0.050394773 0.0939316 0.021839224 -0.112069294 -0.17448872 0.2331615 0.3319237 0.3288616 -0.12163879 0.740499 0.19328383 -0.50877196 -0.07267673 -0.21226498 0.29980755 0.3878332 -0.6515035 -0.655275 0.2923332 0.08541551 0.42137334 0.15038587 -0.57939947 -0.09885735 0.0640505 -0.040248588 -0.19024307 0.22788233 -0.22179157 0.14177471 -0.09520671 0.7333035 0.44444764 -0.14051235 0.037208598 0.7152042 0.24481976 -0.72971815 -0.09417639 0.72217286 -0.23958164 0.0058952295 0.5502947 -0.44417593 -0.50122076 0.16764767 -0.040652003 0.25591934 -0.29216087 0.30874452 -0.065147586 -0.6200262 -0.60541415 0.21761839 -0.27669132 0.27978006 0.65047383 0.013141584 0.35436022 -0.17290096 -0.76576096 0.47442597 -0.16503276 0.24019614 -0.18449488 0.0875555 0.18706898 -0.2956395 0.09737866 -0.039156754 0.087784074 -0.19696872 -0.17181411 0.26095265 0.4057975 -0.037647408 0.47733414 -0.9258089 0.20069858 -0.2568962 -0.026630392 0.2003428 0.41800302 -0.28781858 -0.60418844 -0.57827693 -0.31854782 -0.07810446 -0.34127972 -0.7410281 0.3773285
home 0.6084992 -0.20790349 0.17153402 -0.7489264 -0.20323527 0.11908433 -0.18064806 -0.41381863 0.31981933 -0.26396185 0.71444106 0.4354828 0.39635146 0.21200348 0.08749311 0.3243844 0.105184115 -0.25471252 0.8166963 -0.55379397 -0.24681094 -0.012171229 -0.6206795 0.35070005 -0.16733453 0.08755594 -0.28131956 -0.5002027 0.087977536 0.46859473 -0.1070673 0.49757364 0.26931083 -0.35245484 0.12232568 0.33122477 -0.18397348 -0.14391114 0.638401 -0.022595495 -0.11532068 -0.25878057 0.26695463 -0.18544658 -0.002859198 0.4103888 0.29010394 -0.66411436 -0.2058173 0.5100413 -0.24220826 0.6579924 -0.36277893 -0.4927797 0.57586944 -0.7353081 -0.37104425 0.70844615 -0.008188023 0.29824314 -0.00035696724 -0.9420246 -0.3243111 -0.083704166 -0.1316865 -0.26148155 -0.17773436 -0.50145805 0.31246555 -0.3717207 0.18162647 0.4540578 0.07164542 0.42247218 -0.06263901 0.5087135 -0.45948195 0.28583443 0.3647745 0.08204199 0.015204572 0.1287467 0.04426191 -0.36593762 0.17311712 -0.5057147 -0.45353603 -0.11194289 -0.4691439 -0.08956577 0.01808072 0.5102026 -0.14469261 0.29278696 0.11598444 -0.87651134 -0.5450358 0.31487927 0.18916117 -0.35220158
case 0.0443894 -0.50746185 0.2131242 0.09892244 -0.46477926 0.36493728 0.24971661 0.71673256 0.41187242 0.10961219 0.5946392 0.8344886 -0.068872675 -0.6803765 0.071884416 0.033243697 0.3512399 0.54555506 0.8971583 0.021704653 -0.32478267 0.13847996 -0.47871163 -0.25849885 0.23445554 0.14273626 0.09571315 0.20545615 0.17130783 -0.1730149 -0.04328537 -0.39102224 -0.28409973 -0.3169924 0.18449694 0.09799179 -0.088877425 -0.11882569 -0.27268595 0.49305582 0.5976787 -0.031484544 -0.26651597 0.9849996 -0.0032104903 0.5665773 0.19730614 -0.3261057 -0.23436971 -0.03472084 -0.52804416 0.24298371 -0.23354515 0.32452464 0.3941964 -0.14558929 0.2253473 -0.15571536 0.14437212 0.028937628 -0.23040272 0.2518439 0.019407831 -0.91025835 -0.33138224 0.050745975 0.11404438 0.3709187 -0.6575022 -0.06635851 -0.2692477 -0.1772182 0.18411796 0.003988099 -0.094317034 0.784348 0.1117298 0.19195305 -0.14710715 0.06386351 -0.0427375 0.54950154 0.41295147 0.31644925 0.14606604 -0.16703227 0.3875626 0.17223279 -0.4712374 -0.38454214 0.07802317 0.36566165 -0.3298398 -0.027684856 -0.84926945 -0.46112058 0.4272384 0.08531261 0.14793478 0.20606744
anyth -0.15421037 -0.43561453 -0.5388734 -0.51663345 -0.18393582 -0.11903486 0.60541683 -0.65966535 0.26877248 0.0642297 -0.52971923 0.19010966 0.18915845 -0.5390888 -0.52146846 -0.27811885 0.17569685 0.40569133 1.0964683 -0.68563384 0.12656537 -0.33633885 -0.19309075 0.5855656 0.541458 -0.05483244 0.37560788 -0.12469365 0.16849335 -0.5387383 0.041167896 0.7736811 -0.62275463 0.26747617 0.4264789 -0.39843643 0.4332774 -0.5195064 0.62167525 0.32975876 0.30427617 -0.1620086 0.0071003037 0.2564411 0.41385537 -0.03476063 0.12717046 -0.33111215 -0.034699444 0.5628071 0.09824617 -0.43242246 0.07979248 -0.43773043 0.49726096 -0.38534406 0.27250382 -0.0003823576 -0.09201708 -0.04206313 -0.5965277 0.09403127 0.4560089 0.02457729 0.2936507 0.35994413 -0.14620289 -0.26094463 0.4515837 -0.5459065 -0.30822343 -0.39538774 -0.15809593 -0.3686215 0.34343576 -0.2768676 0.6346495 0.39546198 0.14675982 -0.018094564 -0.038730953 -0.3217305 0.54882735 -0.6595361 0.21215826 0.36001277 -0.43871158 0.06585349 0.021876328 0.31742322 -0.47450992 0.50002086 0.12478354 -0.31334704 -0.050198566 -0.027276121 0.42678028 0.34371457 -0.15905882 -0.26914966
comment -0.17723133 -0.27907568 -0.5293395 0.7879243 0.41119602 -0.091649435 -0.51824313 -0.15538868 -0.26504079 -0.27285185 -0.46762612 -0.09461132 0.7696637 0.20619723 -0.18159825 -0.3753039 -0.24906054 0.18476221 0.25910982 0.2882102 0.37069076 0.5188567 -0.23316596 -0.16865481 0.4623166 -0.4751349 -0.9258688 -0.17776819 -0.15125674 0.651619 0.015298667 0.05966517 -0.52416885 0.1043034 0.115411565 -0.3883734 0.6442442 -0.4823331 0.25902644 0.33220512 -0.12879595 0.17743213 -0.702776 0.23404624 0.035093714 0.5992971 0.12948747 -0.26074255 0.7814136 0.03580792 0.3294999 0.34575778 0.5869259 -0.15617284 -0.15415123 0.3869111 -0.5790511 -0.15580976 0.2371566 0.6685398 -0.64894 -0.065308094 0.29050997 -0.6184368 -0.49544057 -0.14187583 -0.1955217 -0.18023844 -0.38438636 -1.0916841 -0.35022226 0.12098175 0.59446114 -0.2778327 -0.021464428 0.47883585 -0.834245 -0.47283658 0.023929683 -0.24543042 0.014983958 0.18577296 0.86731017 0.08948506 0.10411054 -0.15272544 0.07055842 0.14538121 -0.279621 -0.2410481 0.51709443 0.28644553 -0.27324122 -1.1198922 -0.7080832 -1.0135007 -0.010760425 -0.26094303 -0.36277086 -0.26658082
yea 0.0075461655 -1.6154914 -0.24562573 0.22405128 -0.48092625 0.3917022 -0.046402667 0.02620145 0.2020485 -0.12568307 -0.12505591 -0.33426616 0.7407879 -0.27294844 -0.41675854 0.9885741 0.11153139 0.21238373 0.2091446 0.33732033 -0.2806222 0.6049698 0.96136045 -0.43977642 0.45818514 -0.24712956 0.45523 0.019570356 0.6072428 -0.15437604 -0.27769384 0.38705498 -0.3311345 0.36094013 -0.8713559 -0.880514 -0.10952461 -0.12571853 0.4983915 0.7289287 0.13063973 -0.20951097 -0.10303522 -0.6009806 -0.64835995 0.74794775 0.22875287 -0.91359454 0.7231306 0.33465567 0.21803617 0.78029174 -0.5534889 -0.131036 0.21274813 0.2807471 -0.21577819 0.6973966 0.4539761 0.072059765 -0.71920663 0.80651087 -0.47967547 -0.16349152 0.931834 0.8177543 -0.71034604 0.108424425 0.09999476 0.3184164 0.09051342 0.46626675 0.12930717 -0.008795567 -0.90797305 0.67056376 -0.28785908 -0.37715784 0.60735357 0.14239383 -0.5616874 -0.096149154 -0.050918736 0.47736165 0.4172429 0.82376987 -0.9020518 0.59688675 0.09769491 -0.15475777 -0.4799127 0.73959714 0.44293016 -0.5693458 -0.41774067 -0.4550379 -0.19604434 0.42437392 0.29034472 0.2906843
face -0.6639484 -0.3065494 -0.56108373 -0.91797775 0.3954202 0.015541515 0.3613176 -0.51592094 0.5249138 -0.46115035 -0.35723054 0.33092934 0.25795892 -0.34243134 -0.7149411 -0.52116036 0.6841089 -0.7040648 0.22764304 0.3907221 -0.40075535 -0.613545 -0.7105301 0.20300338 0.12875395 0.05722574 0.23289216 -0.36439157 0.41936725 0.2140313 0.37294585 1.0169075 -0.29983035 0.6071634 -1.2187825 -0.18517666 -0.48654565 -0.80898434 0.42831764 -0.4083451 0.01963948 -0.059427615 -0.10048222 0.3245858 0.35069057 0.5721433 -0.026520548 0.33136636 0.25606602 0.13352221 0.6403734 0.5130785 0.54187137 0.063405715 0.16493602 0.37983498 0.17415231 -0.16870606 -0.67238355 -0.089364514 0.26312074 -0.52051574 0.040053662 -0.24427101 -0.3126264 0.39674768 -0.28514805 0.14330742 -0.12680309 0.6347127 0.6581842 -0.1060316 0.5191468 0.80911434 -0.5577195 0.51318926 -0.3091994 -0.104398966 0.8007035 -0.6785816 0.032609668 -0.10022586 0.35939857 -0.30657244 0.031039268 -0.26816136 -0.4633812 0.49553236 0.6723963 0.024127156 0.34699398 -0.1326686 -0.11643532 -0.5109257 0.09144634 -0.43445802 -0.2889612 -0.36752585 -0.5206861 -0.1069279
anim -0.44747984 -0.9164139 0.085833944 0.95338047 0.8489763 -0.27831504 0.269765 -0.40458623 0.4190347 -1.2191802 -0.38732904 0.6020918 0.7633692 -0.27508676 0.107320465 0.20418963 0.05273034 -0.51183367 0.58123964 0.049521655 0.2540938 0.41331005 0.17243458 0.48598793 -0.2535557 0.3599056 0.14215727 -0.14528206 0.4908059 -0.5533094 -0.45853955 0.5527803 -0.34992784 -0.34685034 -0.338197 -1.0913237 0.610991 -0.79686683 0.10282028 -0.075453274 -0.18297963 0.34945583 -0.31856945 -0.4815232 0.117897905 0.15024798 -0.042114023 -0.10382534 -0.50616986 -0.038827796 0.28281093 0.42751387 0.75519425 0.06666082 0.8747312 -0.01015405 0.07024457 -0.3014788 0.07383737 0.19186941 0.16815913 -0.54099923 -0.019702533 -0.2898913 0.4871723 0.07881227 0.31157959 0.09306149 -0.6147589 0.43869975 -0.2267886 -0.16239204 -0.14183392 0.04865456 0.29118425 0.47686687 -0.3522634 -0.2463778 0.27870402 -0.7966785 -0.2673547 -0.09231145 0.06973051 0.51255757 -0.20199154 0.3881271 -0.3630541 -0.36135927 -0.35745075 -0.26555327 -0.10823898 0.10212784 -0.1393201 -0.26645905 0.25438464 -0.21250477 0.9951316 0.3960268 0.27338177 0.023592783
parent -0.2033421 -0.8011565 -0.48646045 -0.011261661 -0.6698702 0.43424416 0.07544735 0.49052587 0.24560939 0.03966094 -0.125744 0.14727157 -0.638014 -0.25816506 0.451258 -0.5463581 -0.028796209 -0.20704666 0.5448523 0.050570495 -0.447601 0.48469704 -0.6845772 -0.48500085 0.036211688 0.5664538 0.04263986 -0.629141 0.19939189 -0.2582587 -0.16683617 -0.024043586 -0.18295363 0.2757951 0.6193743 0.37570173 0.63536966 -0.13246205 0.5984906 -0.6562263 -0.10049286 -0.046551023 -0.57023937 0.6938728 -0.028585445 0.18471912 -0.24706574 -0.070027195 0.20949392 0.38076347 0.4684265 0.61251956 0.14925046 -0.14059538 -0.034640368 -0.19858357 -0.1914597 0.3922309 0.33640856 -0.28056872 -0.2424672 -0.45857018 0.06207314 -0.124791324 0.63353574 -0.78416944 0.27253595 0.43162212 0.04308343 0.6644086 -0.076590635 0.33959016 0.5483862 -0.5924301 -0.2298358 0.09311411 -0.3246045 0.4381702 0.5572769 -0.008502385 -0.5732872 -0.03425944 0.2756671 -0.3345943 -0.6489832 -0.047770347 -0.31531924 0.7684035 -0.15950327 -0.11261594 -0.07309756 0.2546072 -0.4673217 -0.11625227 -0.3463217 0.08211153 -0.077817224 -0.3369647 0.13690367 0.26794362
condol 0.23865978 -0.15523213 0.071552165 0.020049013 -0.3399819 -0.11741593 -0.32301015 0.21059486 -0.09422854 -0.8984552 0.03462082 -0.1492586 0.25675142 -0.7612399 1.1880457 -0.28345874 0.2882047 0.87053645 0.6666725 -0.15952933 0.4969114 -0.7501011 -0.19741495 -0.654937 0.040539555 0.5122613 0.55437315 -0.79017735 -0.43964264 -0.042551998 1.1337762 0.4568392 -0.47232503 -0.32726514 0.51936024 0.16414098 -0.14416069 -0.5206157 -0.030037344 0.3330251 0.21149985 0.05564853 -0.7887329 -0.10074138 0.17345072 -0.10186704 -0.28550848 -0.29185635 0.0043949625 -0.2522939 0.34615114 0.5451404 -0.49045417 -0.7318372 -0.14885339 -0.84524494 -0.97098285 -0.22928949 -0.19671603 -0.036983315 0.11451925 -0.65841 0.6389316 -0.53781396 0.73996234 1.384479 0.19881468 -0.14577363 1.3586513 0.5023008 -0.5125989 0.016406754 0.7071086 0.8120865 -1.6301994 0.54955447 -0.37013862 -0.6882495 0.2105858 0.31472975 -0.6009663 0.4848793 -0.5533412 0.087816365 0.7865513 0.21137878 -0.15831585 0.14263132 0.45952898 -0.16663888 0.19907257 0.34368736 0.115812235 -0.15990366 -0.07129218 -0.8214346 0.73475546 -0.29246387 0.118572176 0.06297352
bhi 0.04620692 -0.22139056 0.3283075 0.04266779 0.3330067 -0.26882195 -1.0179145 -0.43157545 0.45820904 0.34522048 0.0369507 -0.5388884 0.41762477 -0.5482612 0.03126991 -0.017448297 0.16964856 -0.13703837 -0.08067919 0.5749624 -0.1374364 0.076824315 -0.6331992 -0.22775501 -0.23822089 0.5508823 0.23884998 0.66567457 -0.07805161 -0.19221772 -0.7116357 1.361232 -0.9779441 0.6673844 0.039906334 -0.3419291 -0.1751601 -0.89503545 0.121198826 -0.071340784 -0.0919205 -0.18587962 0.066551216 -0.09181737 -0.6503754 0.46653485 0.08111814 0.33251312 -0.18968733 -1.240509 0.420988 0.24632889 0.14639677 -0.75177944 -0.22504866 -0.36229467 -0.19145152 0.11961985 -0.12721638 -0.1169907 -0.21691346 -0.5569928 0.5232828 -0.2456939 0.30213714 0.7039694 0.15961519 0.18780695 -0.005088774 -0.39114463 -0.23495297 0.5425835 -0.008385287 1.1041161 -1.165775 0.4873509 -0.1714093 0.31691372 0.7054567 0.49630192 0.12745541 -1.3602196 0.8613932 0.14412946 -0.33621582 -0.5145762 0.39849883 -0.35731775 0.04005279 0.13978817 1.0172744 0.022409568 -0.56851554 0.8225774 -0.052561272 -1.5549582 0.35581762 -0.74783564 0.093022555 -0.15681684
noth -0.16404288 -0.60214734 -0.3257634 0.6192287 0.4807411 0.5712514 0.06679328 -0.53390163 -0.020770669 -0.032621257 -0.025945226 -0.2174235 1.072707 0.20746006 -0.019037507 0.06583345 0.3864632 -0.3243637 0.61313695 -1.0597844 -0.25161853 -0.09459183 0.3066376 -0.23504972 -0.38216105 -0.083416186 -0.07592526 -0.37725243 -0.21149093 0.3760856 0.22346362 -0.100709096 -0.49370056 0.2869829 -0.38160786 0.12542705 0.5359317 -0.5328419 -0.054585256 0.35897684 -0.18018484 0.028923377 -0.080670334 0.38435137 0.06856591 -0.27510494 -0.29015258 0.43963036 -0.4632289 -0.2696252 0.12125532 -0.0939145 0.036147583 -0.12079834 0.14299896 -0.34888342 -0.607313 -0.0014565286 0.05346065 -0.042387486 -0.9943779 0.3088449 -0.054082535 0.2627095 0.17876513 0.056410406 -0.008030718 -0.012134707 -0.23673758 0.25632012 0.6683927 0.027798532 -0.04171499 0.38302556 -0.12915552 0.15926965 0.17017296 0.66492903 0.025965441 -0.41361222 0.18987739 0.29331872 0.5739449 0.120734885 0.154095 0.48107123 -0.09688784 0.32152098 -0.56764406 -0.2999863 -0.101248346 0.44974086 -0.32951254 -0.29290578 -1.1280776 -0.94938505 0.10261998 -0.37520322 0.32938018 -0.19819467
flu -0.448449 -1.2130277 0.056810927 0.072256945 -0.4213952 0.071724504 0.23613909 0.828979 0.72993016 -1.2698674 -0.48248935 0.39016768 0.61553025 -0.27411476 0.5442749 0.45476365 0.5933177 -0.26204517 0.27435717 0.39504206 0.07648433 -0.39041576 -0.24235648 -0.47291243 -0.1846467 -0.32322076 1.1964775 0.25604907 0.85273826 0.31998524 0.6097734 0.015398326 -0.36739856 -0.4980419 -0.5282962 0.18213843 -0.50708574 -0.29407525 -0.026999483 -0.0014995185 0.21028575 0.93411547 -0.205716 0.20920211 -0.37487206 0.358463 0.53470117 0.12762807 0.35157338 -0.45171842 -0.42357594 -0.44268748 -0.18391652 -0.23294419 -0.13361892 0.08989002 -0.6528179 0.78410006 0.13690919 -0.15163554 0.08082729 -0.009563618 -0.47563747 0.115917906 0.044909272 -0.28783974 -0.302832 -0.061999734 0.103353 0.68950504 -0.12785475 0.33343092 0.17739993 -0.059901524 -0.68600804 -0.1428644 -0.24927211 0.7501008 0.2740389 0.43632245 0.16210945 -0.67695403 1.0329291 0.05428999 0.22548203 0.22087061 -0.22182436 -0.13290189 0.023745032 -0.19847277 -0.5032816 0.53756523 0.21824788 -0.64223975 -0.69398767 -0.2839026 0.26932967 -0.10169967 0.9381646 -0.09697854
care -0.15105751 -0.12043659 0.48151204 -0.41443437 0.0011346699 0.46651912 0.75872636 -0.05220686 -0.059026465 -0.37512308 0.2781756 -0.73612934 -0.32699272 -0.24774198 0.5667097 0.034442674 -0.3873547 0.30264384 0.43565157 -0.39412344 -0.13270925 -0.666571 -0.52748054 0.2168085 -0.024376318 0.23124698 0.22251059 -0.52316755 0.48766413 0.058309723 -0.6547264 0.580208 0.011420276 -0.27781534 -0.19632412 0.29619876 -0.023750683 -0.044202346 0.15222968 0.12960212 0.3906125 0.119263984 0.12601908 -0.521816 -0.17236681 0.19249737 0.26189822 -0.23395167 -0.025920548 0.24354126 -0.19781971 1.052397 0.34920675 -0.5602429 -0.27059793 0.08073551 0.107976645 -0.046544638 0.28804076 0.76406366 -0.29783612 -0.8513211 0.15570253 -0.3000991 0.15011679 -0.24081148 0.011939125 -0.29321286 0.714351 -0.21918954 -0.055610657 -0.58782387 -0.12999721 -0.3910631 -0.48986676 0.64316916 0.56898564 0.9291757 -0.22679867 0.4149321 0.85866606 -0.71085286 0.1522384 0.11483472 -0.33125106 0.010399929 -0.3215537 -0.26801986 -0.11818664 -0.05699715 -0.75776964 0.004039792 0.07605393 -0.6010465 -0.19992234 -0.6923631 -0.36646888 -0.08400989 -0.4002844 0.16919401
anyon 0.05509731 0.19154724 -0.06262397 0.10051928 0.18991886 0.16212077 -0.36134323 -0.32132038 0.08218448 -0.34876394 -0.051641308 0.45602557 0.19598754 -0.7410278 0.27876252 0.16541478 -0.5745487 0.35540995 -0.022109311 -0.29067504 0.058837596 -0.22868648 -0.03972012 0.2327535 0.09492129 0.5379345 -0.30936158 -0.15463118 0.06961916 -0.6439976 0.499933 0.09101843 -0.33665508 -0.69673854 0.066725574 0.21687426 0.3511138 -0.12556154 -0.07368425 0.5058377 0.35733044 -0.5624418 0.17248031 0.21041895 0.10009051 -0.39310104 -0.05226122 -0.19090018 0.013934466 -0.01587695 0.007929138 0.3395494 -0.11690665 0.0814834 0.0052103144 -0.21866056 -0.68090093 -0.4321745 -0.30020365 0.57515675 -0.66489446 -0.26127723 0.46534988 0.06471221 0.22121081 0.06943136 -0.40309376 0.3224255 -0.075796865 -0.039775196 -0.5008484 -0.13125016 -0.39476317 -0.067343906 0.11235403 0.4212933 0.09141818 -0.13812953 0.40567803 0.621789 -0.47915322 -0.10089657 1.1514522 0.1480897 -0.12350656 -0.24108867 -0.4345724 0.15746514 0.50209606 -0.086090975 -0.4976494 0.48921615 -0.25421718 -0.18878537 -0.8658191 -1.0240252 -0.025985476 0.3052157 -0.029939516 -0.13889895
que 0.8855672 -0.76293874 -0.02389041 -0.32520205 0.08946579 1.0187408 0.07622749 0.18311027 0.25562772 -1.380702 0.31888452 -0.5016589 1.1077801 0.34688607 0.40958273 0.21201955 0.25445136 0.06857885 0.9481586 0.35482335 0.09276953 0.67193127 -0.9359338 -1.2831527 -0.57803434 0.53978544 0.16263556 -0.7181164 0.4314169 0.004114427 0.49222875 -0.9268472 -0.5545943 -0.50979716 -0.13154596 0.45214948 -0.5636537 0.20593831 0.6412247 -0.56991756 -0.19128816 0.47526896 -0.30588457 0.44059664 0.24963951 0.6651629 0.45411256 -0.5565347 -0.121618345 -0.059712812 0.31953058 0.26449698 -0.19643345 -0.3107501 0.12080505 -0.2591282 0.15208595 0.53165853 0.6499407 0.14687781 -0.43117276 0.15002021 0.668567 -0.127216 0.8008399 1.670903 -0.38246804 -0.051314894 -0.37430882 -0.07660955 -1.0874809 -0.51613307 0.37692356 0.9441142 -0.11460077 1.6127576 0.0125414105 -0.12954608 -0.8322871 0.3482223 -0.17478618 -0.8874924 0.1605781 -0.41491506 0.253377 0.35193494 -0.7631842 0.88348943 0.62391794 -0.860368 0.2538702 0.15541208 -0.20894599 -0.068133496 0.48713568 -0.05268731 0.041146584 -0.43012655 0.6863423 0.58779126
